{"learner":{"attributes":{"scikit_learn":"{\"_estimator_type\": \"classifier\"}"},"feature_names":[],"feature_types":[],"gradient_booster":{"model":{"cats":{"enc":[],"feature_segments":[],"sorted_idx":[]},"gbtree_model_param":{"num_parallel_tree":"1","num_trees":"300"},"iteration_indptr":[0,1,2,3,4,5,6,7,8,9,10,11,12,13,14,15,16,17,18,19,20,21,22,23,24,25,26,27,28,29,30,31,32,33,34,35,36,37,38,39,40,41,42,43,44,45,46,47,48,49,50,51,52,53,54,55,56,57,58,59,60,61,62,63,64,65,66,67,68,69,70,71,72,73,74,75,76,77,78,79,80,81,82,83,84,85,86,87,88,89,90,91,92,93,94,95,96,97,98,99,100,101,102,103,104,105,106,107,108,109,110,111,112,113,114,115,116,117,118,119,120,121,122,123,124,125,126,127,128,129,130,131,132,133,134,135,136,137,138,139,140,141,142,143,144,145,146,147,148,149,150,151,152,153,154,155,156,157,158,159,160,161,162,163,164,165,166,167,168,169,170,171,172,173,174,175,176,177,178,179,180,181,182,183,184,185,186,187,188,189,190,191,192,193,194,195,196,197,198,199,200,201,202,203,204,205,206,207,208,209,210,211,212,213,214,215,216,217,218,219,220,221,222,223,224,225,226,227,228,229,230,231,232,233,234,235,236,237,238,239,240,241,242,243,244,245,246,247,248,249,250,251,252,253,254,255,256,257,258,259,260,261,262,263,264,265,266,267,268,269,270,271,272,273,274,275,276,277,278,279,280,281,282,283,284,285,286,287,288,289,290,291,292,293,294,295,296,297,298,299,300],"tree_info":[0,0,0,0,0,0,0,0,0,0,0,0,0,0,0,0,0,0,0,0,0,0,0,0,0,0,0,0,0,0,0,0,0,0,0,0,0,0,0,0,0,0,0,0,0,0,0,0,0,0,0,0,0,0,0,0,0,0,0,0,0,0,0,0,0,0,0,0,0,0,0,0,0,0,0,0,0,0,0,0,0,0,0,0,0,0,0,0,0,0,0,0,0,0,0,0,0,0,0,0,0,0,0,0,0,0,0,0,0,0,0,0,0,0,0,0,0,0,0,0,0,0,0,0,0,0,0,0,0,0,0,0,0,0,0,0,0,0,0,0,0,0,0,0,0,0,0,0,0,0,0,0,0,0,0,0,0,0,0,0,0,0,0,0,0,0,0,0,0,0,0,0,0,0,0,0,0,0,0,0,0,0,0,0,0,0,0,0,0,0,0,0,0,0,0,0,0,0,0,0,0,0,0,0,0,0,0,0,0,0,0,0,0,0,0,0,0,0,0,0,0,0,0,0,0,0,0,0,0,0,0,0,0,0,0,0,0,0,0,0,0,0,0,0,0,0,0,0,0,0,0,0,0,0,0,0,0,0,0,0,0,0,0,0,0,0,0,0,0,0,0,0,0,0,0,0,0,0,0,0,0,0,0,0,0,0,0,0,0,0,0,0,0,0,0,0,0,0,0,0],"trees":[{"base_weights":[-9.532242E-4,1.2912551E0,-5.728385E-1,1.6532643E0,-6.025333E-1,1.7073275E0,-8.840203E-1,1.8224851E0,-6.122074E-1,-1.6487489E0,1.5031354E-1,1.8871127E-1,-1.1090261E-1,-1.1117059E0,1.5397763E0,1.8852931E0,-1.1090261E-1,-1.5759857E-1,1.275121E-1,-1.8014933E-1,-2.201354E-2,1.5382962E0,-1.2727401E0,-1.1977483E-1,1.8765406E-1,1.9496591E0,-3.3082943E-2,1.792841E-1,-2.201354E-2,1.0034472E0,-1.4365232E0,1.976221E-1,2.2430992E-2,-1.197248E-1,1.7871404E-1,9.262588E-2,-1.5272175E-1],"categories":[],"categories_nodes":[],"categories_segments":[],"categories_sizes":[],"default_left":[1,1,0,1,1,0,1,1,0,1,0,0,0,0,0,1,0,0,0,0,0,1,1,0,0,1,0,0,0,0,1,0,0,0,0,0,0],"id":0,"left_children":[1,3,5,7,9,11,13,15,17,19,-1,-1,-1,21,23,25,-1,-1,-1,-1,-1,27,29,-1,-1,31,-1,-1,-1,33,35,-1,-1,-1,-1,-1,-1],"loss_changes":[2.3666296E2,6.835301E1,1.5902803E2,3.2839096E1,3.8827396E1,1.5763954E1,1.0987665E2,1.63143E1,1.3832814E1,2.1128693E0,0E0,0E0,0E0,7.866429E1,1.8150356E1,1.1485779E1,0E0,0E0,0E0,0E0,0E0,5.2063427E0,6.481738E1,0E0,0E0,2.9480286E0,0E0,0E0,0E0,2.2835617E1,3.5486725E1,0E0,0E0,0E0,0E0,0E0,0E0],"parents":[2147483647,0,0,1,1,2,2,3,3,4,4,5,5,6,6,7,7,8,8,9,9,13,13,14,14,15,15,21,21,22,22,25,25,29,29,30,30],"right_children":[2,4,6,8,10,12,14,16,18,20,-1,-1,-1,22,24,26,-1,-1,-1,-1,-1,28,30,-1,-1,32,-1,-1,-1,34,36,-1,-1,-1,-1,-1,-1],"split_conditions":[4.68749E-3,5.408371E-3,7.4839345E-3,1.1230537E-2,1.8673781E-2,2.3387259E-2,1.6774977E-2,2.6564905E-2,2.4011042E-2,3.0902663E-2,1.5031354E-1,1.8871127E-1,-1.1090261E-1,6.729692E-3,1.5218786E-2,3.648715E-2,-1.1090261E-1,-1.5759857E-1,1.275121E-1,-1.8014933E-1,-2.201354E-2,1.8335715E-2,5.578964E-3,-1.1977483E-1,1.8765406E-1,2.288405E-2,-3.3082943E-2,1.792841E-1,-2.201354E-2,1.0649813E-2,5.829833E-3,1.976221E-1,2.2430992E-2,-1.197248E-1,1.7871404E-1,9.262588E-2,-1.5272175E-1],"split_indices":[298,4965,876,1635,4803,1206,4049,4278,4803,16,0,0,0,4531,2470,1304,0,0,0,0,0,45,4225,0,0,1594,0,0,0,163,4542,0,0,0,0,0,0],"split_type":[0,0,0,0,0,0,0,0,0,0,0,0,0,0,0,0,0,0,0,0,0,0,0,0,0,0,0,0,0,0,0,0,0,0,0,0,0],"sum_hessian":[3.1824887E2,9.724965E1,2.209992E2,8.174971E1,1.5499945E1,2.5999907E1,1.949993E2,7.6249725E1,5.4999804E0,1.0499963E1,4.999982E0,2.4749912E1,1.2499955E0,1.7874936E2,1.6249943E1,7.499973E1,1.2499955E0,3.7499866E0,1.7499938E0,9.249967E0,1.2499955E0,9.749965E0,1.6899939E2,1.4999946E0,1.4749948E1,7.299974E1,1.9999928E0,8.4999695E0,1.2499955E0,1.0999961E1,1.5799944E2,7.174974E1,1.2499955E0,2.7499902E0,8.24997E0,5.4999804E0,1.5249945E2],"tree_param":{"num_deleted":"0","num_feature":"5020","num_nodes":"37","size_leaf_vector":"1"}},{"base_weights":[1.9069594E-4,1.0344577E0,-6.17365E-1,1.5284531E0,-1.7001133E-1,1.7706925E-1,-9.489867E-1,1.6723702E0,-8.2244116E-1,1.350049E0,-9.615796E-1,1.0662647E0,-1.0978099E0,1.7530054E0,-9.6125804E-2,-1.416932E-1,6.639367E-2,1.7040187E-1,-7.442093E-2,-1.4091612E0,1.4231066E-1,-1.2438124E-1,1.6264391E-1,-1.2537618E0,6.4986426E-1,1.8031229E-1,-4.6781074E-2,-1.6248196E0,7.942786E-2,-1.3805035E0,6.561681E-1,-1.3840567E-1,1.3308884E0,-1.3862554E-3,-1.7622605E-1,-1.5073E-1,5.8558404E-2,1.383319E-1,-1.2785958E-1,-7.0797876E-2,1.727834E-1],"categories":[],"categories_nodes":[],"categories_segments":[],"categories_sizes":[],"default_left":[1,1,0,1,0,0,0,1,0,1,1,0,0,1,0,0,0,0,0,1,0,0,0,1,0,0,0,0,0,1,1,0,0,0,0,0,0,0,0,0,0],"id":1,"left_children":[1,3,5,7,9,-1,11,13,15,17,19,21,23,25,-1,-1,-1,-1,-1,27,-1,-1,-1,29,31,-1,-1,33,-1,35,37,-1,39,-1,-1,-1,-1,-1,-1,-1,-1],"loss_changes":[2.0042842E2,7.006403E1,1.5727975E2,2.9557312E1,4.3437157E1,0E0,5.310829E1,1.8423676E1,5.779028E0,1.0466505E1,2.7208693E1,1.8090454E1,4.4902313E1,9.395172E0,0E0,0E0,0E0,0E0,0E0,1.097686E1,0E0,0E0,0E0,3.693701E1,2.1109978E1,0E0,0E0,4.159172E0,0E0,3.5760437E1,1.5753761E1,0E0,1.0069822E1,0E0,0E0,0E0,0E0,0E0,0E0,0E0,0E0],"parents":[2147483647,0,0,1,1,2,2,3,3,4,4,6,6,7,7,8,8,9,9,10,10,11,11,12,12,13,13,19,19,23,23,24,24,27,27,29,29,30,30,32,32],"right_children":[2,4,6,8,10,-1,12,14,16,18,20,22,24,26,-1,-1,-1,-1,-1,28,-1,-1,-1,30,32,-1,-1,34,-1,36,38,-1,40,-1,-1,-1,-1,-1,-1,-1,-1],"split_conditions":[4.952707E-3,5.688963E-3,6.7683575E-3,8.709686E-3,2.2814943E-2,1.7706925E-1,6.396887E-3,9.558391E-3,2.171476E-2,1.0435121E-2,1.5282074E-2,8.05149E-3,4.3271385E-2,1.0143554E-2,-9.6125804E-2,-1.416932E-1,6.639367E-2,1.7040187E-1,-7.442093E-2,1.1502297E-2,1.4231066E-1,-1.2438124E-1,1.6264391E-1,3.246849E-2,1.09373275E-2,1.8031229E-1,-4.6781074E-2,1.5904013E-2,7.942786E-2,3.5331573E-2,1.0061489E-2,-1.3840567E-1,1.4485632E-2,-1.3862554E-3,-1.7622605E-1,-1.5073E-1,5.8558404E-2,1.383319E-1,-1.2785958E-1,-7.0797876E-2,1.727834E-1],"split_indices":[3667,1859,3474,1016,4745,0,2823,1063,4438,4873,2055,3312,371,149,0,0,0,0,0,3743,0,0,0,4446,1130,0,0,2284,0,4596,897,0,1910,0,0,0,0,0,0,0,0],"split_type":[0,0,0,0,0,0,0,0,0,0,0,0,0,0,0,0,0,0,0,0,0,0,0,0,0,0,0,0,0,0,0,0,0,0,0,0,0,0,0,0,0],"sum_hessian":[3.1179837E2,1.16317535E2,1.9548082E2,8.2296036E1,3.4021503E1,2.3306652E1,1.7217416E2,7.782063E1,4.4754024E0,1.1408347E1,2.2613155E1,1.1416461E1,1.607577E2,7.583318E1,1.9874482E0,3.2301822E0,1.2452203E0,9.918302E0,1.4900451E0,1.9384045E1,3.229111E0,1.9899199E0,9.426541E0,1.4784732E2,1.291038E1,7.4343544E1,1.4896423E0,1.7895178E1,1.4888657E0,1.3890675E2,8.9405775E0,2.9795256E0,9.930855E0,1.4932705E0,1.6401909E1,1.3071036E2,8.196391E0,6.705456E0,2.2351222E0,1.4906633E0,8.440192E0],"tree_param":{"num_deleted":"0","num_feature":"5020","num_nodes":"41","size_leaf_vector":"1"}},{"base_weights":[-4.5946906E-3,7.169575E-1,-7.734098E-1,1.1683868E0,-7.581728E-1,1.5656146E-1,-1.0398917E0,1.3248637E0,-1.0406547E0,-1.269681E0,6.836193E-1,-1.2740123E0,3.839117E-1,1.4371226E0,-9.777014E-1,-1.5249908E-1,1.0216291E-1,9.699891E-2,-1.4755769E0,1.5046278E-1,-9.249036E-1,-1.4706006E0,-1.7605114E-1,-1.1907357E0,1.188375E0,1.5680658E0,-3.2130367E-1,-1.3683264E-1,2.7991971E-2,-1.6075419E0,6.575068E-2,-1.1580729E-1,-1.962475E-2,1.0628424E-1,-1.5203165E0,-1.1259207E0,1.1319405E0,-1.524031E-1,2.3270981E-2,-1.1100514E-1,1.6160823E-1,1.62614E-1,-7.240713E-2,-1.3009457E-1,1.2549226E-1,-1.6730286E-1,-1.8254532E-2,-1.5837103E-1,6.378599E-2,-1.5030277E-1,1.0871079E-1,1.6244277E-1,-9.556233E-2],"categories":[],"categories_nodes":[],"categories_segments":[],"categories_sizes":[],"default_left":[1,1,0,1,1,0,1,1,1,1,1,1,0,1,1,0,0,0,1,0,1,0,1,1,1,1,1,0,0,1,0,0,0,0,1,1,1,0,0,0,0,0,0,0,0,0,0,0,0,0,0,0,0],"id":2,"left_children":[1,3,5,7,9,-1,11,13,15,17,19,21,23,25,27,-1,-1,-1,29,-1,31,33,35,37,39,41,43,-1,-1,45,-1,-1,-1,-1,47,49,51,-1,-1,-1,-1,-1,-1,-1,-1,-1,-1,-1,-1,-1,-1,-1,-1],"loss_changes":[1.701919E2,1.06277695E2,9.4208206E1,4.3402664E1,2.8664747E1,0E0,4.5136948E1,3.0865082E1,1.01501045E1,1.4422024E1,1.528465E1,2.4619019E1,2.6347816E1,2.5619736E1,3.2782087E0,0E0,0E0,0E0,8.430893E0,0E0,4.8195696E-1,1.3911179E1,2.443175E1,3.7491312E0,1.5092354E1,1.471373E1,1.4587424E1,0E0,0E0,2.0238113E0,0E0,0E0,0E0,0E0,1.4165115E1,1.1063444E1,1.01265955E1,0E0,0E0,0E0,0E0,0E0,0E0,0E0,0E0,0E0,0E0,0E0,0E0,0E0,0E0,0E0,0E0],"parents":[2147483647,0,0,1,1,2,2,3,3,4,4,6,6,7,7,8,8,9,9,10,10,11,11,12,12,13,13,14,14,18,18,20,20,21,21,22,22,23,23,24,24,25,25,26,26,29,29,34,34,35,35,36,36],"right_children":[2,4,6,8,10,-1,12,14,16,18,20,22,24,26,28,-1,-1,-1,30,-1,32,34,36,38,40,42,44,-1,-1,46,-1,-1,-1,-1,48,50,52,-1,-1,-1,-1,-1,-1,-1,-1,-1,-1,-1,-1,-1,-1,-1,-1],"split_conditions":[5.1307427E-3,7.930395E-3,8.5026715E-3,1.1968726E-2,2.333374E-2,1.5656146E-1,1.388164E-2,2.1380173E-2,4.0553614E-2,6.7651505E-3,9.295201E-3,1.1321417E-2,2.1180222E-2,8.09673E-3,1.0096852E-2,-1.5249908E-1,1.0216291E-1,9.699891E-2,3.210111E-2,1.5046278E-1,6.4333235E-3,5.0617727E-3,7.1570915E-3,1.619858E-2,1.3906726E-2,1.0368761E-2,9.636954E-3,-1.3683264E-1,2.7991971E-2,1.8591324E-2,6.575068E-2,-1.1580729E-1,-1.962475E-2,1.0628424E-1,1.4451287E-2,1.30354585E-2,7.389041E-3,-1.524031E-1,2.3270981E-2,-1.1100514E-1,1.6160823E-1,1.62614E-1,-7.240713E-2,-1.3009457E-1,1.2549226E-1,-1.6730286E-1,-1.8254532E-2,-1.5837103E-1,6.378599E-2,-1.5030277E-1,1.0871079E-1,1.6244277E-1,-9.556233E-2],"split_indices":[1106,64,4849,1063,770,0,1979,5013,66,3584,767,2680,1808,3920,239,0,0,0,1318,0,201,388,4874,1712,2872,1053,762,0,0,3069,0,0,0,0,1913,458,1977,0,0,0,0,0,0,0,0,0,0,0,0,0,0,0,0],"split_type":[0,0,0,0,0,0,0,0,0,0,0,0,0,0,0,0,0,0,0,0,0,0,0,0,0,0,0,0,0,0,0,0,0,0,0,0,0,0,0,0,0,0,0,0,0,0,0,0,0,0,0,0,0],"sum_hessian":[3.047961E2,1.5726573E2,1.4753038E2,1.2057462E2,3.6691116E1,1.4590274E1,1.3294011E2,1.12972496E2,7.602121E0,2.7170973E1,9.520142E0,1.1425756E2,1.868254E1,1.0807909E2,4.8934135E0,6.367273E0,1.2348483E0,1.9751245E0,2.5195848E1,6.3457756E0,3.1743658E0,9.661874E1,1.7638826E1,6.154882E0,1.2527658E1,1.0068939E2,7.3896933E0,3.6665373E0,1.2268761E0,2.3959925E1,1.2359246E0,1.958364E0,1.2160017E0,1.4673352E0,9.51514E1,1.029891E1,7.339917E0,4.9298983E0,1.2249837E0,1.7151864E0,1.0812471E1,9.848471E1,2.2046776E0,4.664994E0,2.7246997E0,2.2740799E1,1.219126E0,9.2694786E1,2.456614E0,9.073572E0,1.2253376E0,6.11836E0,1.2215571E0],"tree_param":{"num_deleted":"0","num_feature":"5020","num_nodes":"53","size_leaf_vector":"1"}},{"base_weights":[-3.763341E-2,6.6802543E-1,-7.7776444E-1,1.2240992E0,-3.737347E-1,1.4523976E-1,-1.0044346E0,1.4709116E0,-2.2136003E-2,1.216614E0,-9.9532074E-1,-1.2144156E0,3.6420593E-1,1.5482517E0,-4.406448E-1,-1.13846E0,1.4200675E-1,-7.888082E-2,1.5087013E-1,-1.2241741E0,1.1777284E-1,1.3967913E-1,-1.2987236E0,1.3314955E0,-6.8339455E-1,1.5757691E0,-1.8935954E-2,5.793769E-2,-1.06584445E-1,1.11240126E-1,-1.5471506E-1,1.0665559E-1,-1.3630022E0,1.300448E-1,-1.3775938E0,1.574003E-1,-2.5612427E-2,-1.3684806E-1,8.2421964E-1,1.655427E-2,1.5944344E-1,-1.5017807E-1,6.6671565E-2,-1.455375E-1,1.1789922E-1,1.6655255E-2,1.0710245E-1],"categories":[],"categories_nodes":[],"categories_segments":[],"categories_sizes":[],"default_left":[1,1,0,1,0,0,1,1,1,1,1,1,0,1,1,0,0,0,0,0,0,0,0,0,1,0,0,0,0,0,0,0,1,0,1,0,0,0,1,0,0,0,0,0,0,0,0],"id":3,"left_children":[1,3,5,7,9,-1,11,13,15,17,19,21,23,25,27,29,-1,-1,-1,31,-1,-1,33,35,37,39,-1,-1,-1,-1,-1,-1,41,-1,43,-1,-1,-1,45,-1,-1,-1,-1,-1,-1,-1,-1],"loss_changes":[1.5981268E2,9.121676E1,7.69437E1,3.1523605E1,5.586781E1,0E0,3.956685E1,1.3318359E1,3.0450523E1,1.055485E1,2.1484894E1,2.7848587E1,2.0039402E1,4.236862E0,3.2335012E0,1.1518414E1,0E0,0E0,0E0,1.3205551E1,0E0,0E0,2.5382492E1,4.3126354E0,1.117079E1,1.8732147E0,0E0,0E0,0E0,0E0,0E0,0E0,1.0939201E1,0E0,2.4022598E1,0E0,0E0,0E0,4.160347E-1,0E0,0E0,0E0,0E0,0E0,0E0,0E0,0E0],"parents":[2147483647,0,0,1,1,2,2,3,3,4,4,6,6,7,7,8,8,9,9,10,10,11,11,12,12,13,13,14,14,15,15,19,19,22,22,23,23,24,24,25,25,32,32,34,34,38,38],"right_children":[2,4,6,8,10,-1,12,14,16,18,20,22,24,26,28,30,-1,-1,-1,32,-1,-1,34,36,38,40,-1,-1,-1,-1,-1,-1,42,-1,44,-1,-1,-1,46,-1,-1,-1,-1,-1,-1,-1,-1],"split_conditions":[5.1307427E-3,4.875493E-3,7.80768E-3,8.546748E-3,1.45775825E-2,1.4523976E-1,1.388164E-2,9.61475E-3,1.3921505E-2,8.091316E-3,1.774157E-2,5.171401E-3,1.2608566E-2,2.8270096E-2,1.3778448E-2,8.374854E-3,1.4200675E-1,-7.888082E-2,1.5087013E-1,6.7982143E-3,1.1777284E-1,1.3967913E-1,5.9615495E-3,4.1279487E-2,2.9355697E-2,1.1607525E-2,-1.8935954E-2,5.793769E-2,-1.06584445E-1,1.11240126E-1,-1.5471506E-1,1.0665559E-1,1.53822135E-2,1.300448E-1,1.7470215E-2,1.574003E-1,-2.5612427E-2,-1.3684806E-1,5.4387576E-3,1.655427E-2,1.5944344E-1,-1.5017807E-1,6.6671565E-2,-1.455375E-1,1.1789922E-1,1.6655255E-2,1.0710245E-1],"split_indices":[1106,3588,926,3610,2868,0,1979,3047,3252,1648,3076,4461,1265,2299,170,4690,0,0,0,780,0,0,1387,1486,2221,3161,0,0,0,0,0,0,2039,0,4969,0,0,0,7,0,0,0,0,0,0,0,0],"split_type":[0,0,0,0,0,0,0,0,0,0,0,0,0,0,0,0,0,0,0,0,0,0,0,0,0,0,0,0,0,0,0,0,0,0,0,0,0,0,0,0,0,0,0,0,0,0,0],"sum_hessian":[3.0399567E2,1.5567181E2,1.4832385E2,1.0138122E2,5.4290596E1,1.3185622E1,1.3513823E2,8.4471634E1,1.6909586E1,1.4987444E1,3.930315E1,1.1726046E2,1.7877768E1,8.136954E1,3.1020935E0,9.650397E0,7.2591887E0,1.6891861E0,1.3298259E1,3.5953396E1,3.3497558E0,3.1806607E0,1.14079796E2,9.154277E0,8.72349E0,8.019272E1,1.1768188E0,1.2066768E0,1.8954165E0,1.2183689E0,8.432029E0,1.672572E0,3.4280823E1,2.903581E0,1.11176216E2,7.9486976E0,1.205579E0,6.061381E0,2.6621091E0,1.176453E0,7.9016266E1,3.233039E1,1.9504317E0,1.0831169E2,2.864525E0,1.1834296E0,1.4786795E0],"tree_param":{"num_deleted":"0","num_feature":"5020","num_nodes":"47","size_leaf_vector":"1"}},{"base_weights":[-2.2329917E-2,1.1412965E0,-3.6091888E-1,1.3706173E0,-7.978964E-1,8.023267E-1,-7.329831E-1,1.4997956E0,-6.9456065E-1,-1.3920856E-1,8.351573E-2,1.0821996E0,-9.0707976E-1,-8.789162E-1,1.0783828E0,1.5123577E-1,4.6312027E-2,-1.0569618E-1,1.5745385E-2,1.2913568E0,-4.9359578E-1,7.072984E-2,-1.3326798E-1,1.3179698E0,-1.0005499E0,-9.5667094E-2,1.43861E-1,1.4569845E0,-6.293778E-1,1.24260284E-1,-1.2552476E-1,4.07965E-2,1.4000665E-1,-1.136718E0,6.521951E-1,1.5247118E-1,-9.290353E-3,-1.0934945E-1,2.7530745E-2,-1.219615E-1,7.85713E-2,1.1883403E-1,-1.1320716E-1],"categories":[],"categories_nodes":[],"categories_segments":[],"categories_sizes":[],"default_left":[1,1,0,1,1,1,1,1,1,0,0,0,0,0,0,0,0,0,0,1,1,0,0,0,1,0,0,1,0,0,0,0,0,1,1,0,0,0,0,0,0,0,0],"id":4,"left_children":[1,3,5,7,9,11,13,15,17,-1,-1,19,21,23,25,-1,-1,-1,-1,27,29,-1,-1,31,33,-1,-1,35,37,-1,-1,-1,-1,39,41,-1,-1,-1,-1,-1,-1,-1,-1],"loss_changes":[1.1559463E2,3.0503036E1,9.892721E1,1.6916985E1,8.562145E0,2.755304E1,4.659234E1,3.3050537E-2,1.4591281E0,0E0,0E0,1.6517754E1,6.6852217E0,4.4167015E1,1.1143411E1,0E0,0E0,0E0,0E0,1.4536926E1,9.982496E0,0E0,0E0,8.95319E-2,3.506331E1,0E0,0E0,4.310608E0,2.021326E0,0E0,0E0,0E0,0E0,2.3470581E1,1.3058165E1,0E0,0E0,0E0,0E0,0E0,0E0,0E0,0E0],"parents":[2147483647,0,0,1,1,2,2,3,3,4,4,5,5,6,6,7,7,8,8,11,11,12,12,13,13,14,14,19,19,20,20,23,23,24,24,27,27,28,28,33,33,34,34],"right_children":[2,4,6,8,10,12,14,16,18,-1,-1,20,22,24,26,-1,-1,-1,-1,28,30,-1,-1,32,34,-1,-1,36,38,-1,-1,-1,-1,40,42,-1,-1,-1,-1,-1,-1,-1,-1],"split_conditions":[4.054631E-3,8.755515E-3,3.627551E-2,1.3401512E-2,1.0603081E-2,1.0631994E-2,1.6774977E-2,2.2357926E-2,2.542249E-2,-1.3920856E-1,8.351573E-2,6.1023284E-2,9.508912E-3,6.5897717E-3,1.4370893E-2,1.5123577E-1,4.6312027E-2,-1.0569618E-1,1.5745385E-2,2.1916594E-2,8.62645E-3,7.072984E-2,-1.3326798E-1,8.78256E-3,2.423059E-2,-9.5667094E-2,1.43861E-1,2.1951048E-2,1.6570281E-2,1.24260284E-1,-1.2552476E-1,4.07965E-2,1.4000665E-1,2.0384545E-2,1.9873396E-2,1.5247118E-1,-9.290353E-3,-1.0934945E-1,2.7530745E-2,-1.219615E-1,7.85713E-2,1.1883403E-1,-1.1320716E-1],"split_indices":[1174,2818,4298,3343,3049,617,4049,1129,500,0,0,4539,1822,1542,775,0,0,0,0,4904,322,0,0,640,3399,0,0,767,923,0,0,0,0,3138,4570,0,0,0,0,0,0,0,0],"split_type":[0,0,0,0,0,0,0,0,0,0,0,0,0,0,0,0,0,0,0,0,0,0,0,0,0,0,0,0,0,0,0,0,0,0,0,0,0,0,0,0,0,0,0],"sum_hessian":[2.9134857E2,6.51336E1,2.2621497E2,5.8507904E1,6.6256933E0,5.454029E1,1.7167467E2,5.532129E1,3.186616E0,4.9662666E0,1.6594268E0,4.7182278E1,7.358013E0,1.5935127E2,1.2323393E1,5.420559E1,1.1157018E0,2.0669167E0,1.1196994E0,4.1812904E1,5.3693714E0,1.3970115E0,5.961002E0,7.843861E0,1.5150742E2,1.6043113E0,1.0719082E1,3.8715828E1,3.0970767E0,1.4446983E0,3.924673E0,1.1430441E0,6.700817E0,1.4026347E2,1.1243949E1,3.7110413E1,1.605417E0,1.9090197E0,1.1880568E0,1.3481567E2,5.447792E0,8.902786E0,2.341163E0],"tree_param":{"num_deleted":"0","num_feature":"5020","num_nodes":"43","size_leaf_vector":"1"}},{"base_weights":[-2.1602046E-3,9.863138E-1,-4.0286815E-1,1.3512267E0,-2.3458484E-1,1.2410908E0,-6.667124E-1,1.4221358E0,-5.8966346E-2,9.6084726E-1,-1.1649121E0,1.4258993E-1,-8.162042E-2,2.3698579E-1,-9.2748094E-1,1.4516358E0,-1.0214305E-2,-9.1807574E-2,1.4045005E-1,-1.431312E-1,6.5793805E-2,1.1020252E0,-5.079953E-1,-1.0247493E0,1.005096E0,3.328761E-2,1.4663611E-1,1.371616E0,-6.3273704E-1,5.991448E-1,-1.1440232E0,2.8811386E-1,-1.1712743E0,1.5971711E-1,-8.807901E-2,7.076843E-3,1.458216E-1,-8.4111564E-2,-1.2177593E-2,1.1809491E-1,-1.0402451E-1,-1.3927558E-1,4.9865823E-2,1.061857E-1,-1.176006E-1,-1.2669823E-1,6.9660924E-2],"categories":[],"categories_nodes":[],"categories_segments":[],"categories_sizes":[],"default_left":[1,1,0,1,1,1,0,1,0,0,1,0,0,0,1,0,0,0,0,0,0,0,1,1,1,0,0,0,0,0,1,1,1,0,0,0,0,0,0,0,0,0,0,0,0,0,0],"id":5,"left_children":[1,3,5,7,9,11,13,15,-1,17,19,-1,-1,21,23,25,-1,-1,-1,-1,-1,27,29,31,33,-1,-1,35,37,39,41,43,45,-1,-1,-1,-1,-1,-1,-1,-1,-1,-1,-1,-1,-1,-1],"loss_changes":[1.1456015E2,3.7486008E1,9.009158E1,9.698761E0,2.3417562E1,1.211779E1,4.2163292E1,2.9542694E0,0E0,9.06074E0,6.636489E0,0E0,0E0,2.6759037E1,2.7033379E1,5.214844E-1,0E0,0E0,0E0,0E0,0E0,9.813072E0,1.654863E1,2.5768066E1,9.372019E0,0E0,0E0,1.797266E0,2.4434984E-1,9.694303E0,6.680979E0,1.7194214E1,2.2178284E1,0E0,0E0,0E0,0E0,0E0,0E0,0E0,0E0,0E0,0E0,0E0,0E0,0E0,0E0],"parents":[2147483647,0,0,1,1,2,2,3,3,4,4,5,5,6,6,7,7,9,9,10,10,13,13,14,14,15,15,21,21,22,22,23,23,24,24,27,27,28,28,29,29,30,30,31,31,32,32],"right_children":[2,4,6,8,10,12,14,16,-1,18,20,-1,-1,22,24,26,-1,-1,-1,-1,-1,28,30,32,34,-1,-1,36,38,40,42,44,46,-1,-1,-1,-1,-1,-1,-1,-1,-1,-1,-1,-1,-1,-1],"split_conditions":[4.813871E-3,8.42731E-3,7.5707664E-3,9.4340155E-3,7.583542E-3,1.2539264E-2,2.7444018E-2,2.8821418E-2,-5.8966346E-2,1.07779335E-2,1.1284552E-2,1.4258993E-1,-8.162042E-2,1.2914978E-2,1.5544997E-2,4.468336E-3,-1.0214305E-2,-9.1807574E-2,1.4045005E-1,-1.431312E-1,6.5793805E-2,2.2202214E-2,5.4580504E-3,5.651923E-3,1.609978E-2,3.328761E-2,1.4663611E-1,6.206274E-3,5.7359163E-2,3.1790234E-2,1.0730002E-2,1.9704098E-2,2.2599148E-2,1.5971711E-1,-8.807901E-2,7.076843E-3,1.458216E-1,-8.4111564E-2,-1.2177593E-2,1.1809491E-1,-1.0402451E-1,-1.3927558E-1,4.9865823E-2,1.061857E-1,-1.176006E-1,-1.2669823E-1,6.9660924E-2],"split_indices":[765,4126,1652,2327,3275,3795,3004,3667,0,3640,234,0,0,4701,536,2593,0,0,0,0,0,3108,4229,1154,1229,0,0,1742,2,1649,3640,1605,2225,0,0,0,0,0,0,0,0,0,0,0,0,0,0],"split_type":[0,0,0,0,0,0,0,0,0,0,0,0,0,0,0,0,0,0,0,0,0,0,0,0,0,0,0,0,0,0,0,0,0,0,0,0,0,0,0,0,0,0,0,0,0,0,0],"sum_hessian":[2.8722482E2,8.242812E1,2.0479669E2,6.3378307E1,1.9049812E1,2.781062E1,1.7698608E2,6.1402294E1,1.9760157E0,8.322692E0,1.0727121E1,2.5799898E1,2.010721E0,3.965436E1,1.3733173E2,6.0283268E1,1.1190256E0,1.3855157E0,6.937176E0,9.546714E0,1.1804073E0,1.8126915E1,2.1527445E1,1.3119815E2,6.13357E0,1.0898225E0,5.9193447E1,1.5869975E1,2.2569406E0,7.875855E0,1.3651589E1,1.3075499E1,1.1812265E2,4.78455E0,1.34902E0,1.1039743E0,1.4766001E1,1.1441803E0,1.1127602E0,6.019302E0,1.8565531E0,1.1988459E1,1.6631306E0,8.734386E0,4.341112E0,1.1267123E2,5.4514227E0],"tree_param":{"num_deleted":"0","num_feature":"5020","num_nodes":"47","size_leaf_vector":"1"}},{"base_weights":[2.9891144E-2,9.1844815E-1,-3.177459E-1,1.1653348E0,-7.8664327E-1,1.2271849E0,-5.72318E-1,-5.1310587E-1,1.2873781E0,-1.2885468E-1,1.0094012E-1,1.3984884E-1,-7.05817E-2,3.714681E-1,-8.0981743E-1,8.639716E-2,-1.1837274E-1,-3.0685824E-1,1.3679423E0,1.0710381E0,-3.8865465E-1,-9.715168E-1,5.977442E-1,7.653771E-2,-9.974103E-2,1.4118037E0,1.7794518E-3,1.3372319E0,-9.330327E-2,-1.1232721E0,5.4969066E-1,-1.1859045E0,-4.041228E-2,-1.1207427E-1,1.1854903E0,1.4234094E-1,3.7773833E-2,1.4534494E-1,-1.8300591E-2,-1.3296142E-1,2.7028695E-2,1.1669266E-1,-9.6834674E-2,-1.2566042E-1,5.6978296E-2,-7.6340996E-2,8.98984E-2,-6.1828047E-2,1.5252484E-1],"categories":[],"categories_nodes":[],"categories_segments":[],"categories_sizes":[],"default_left":[1,1,0,0,0,0,0,0,0,0,0,0,0,0,0,0,0,0,1,1,0,1,0,0,0,1,0,1,0,0,1,1,0,0,0,0,0,0,0,0,0,0,0,0,0,0,0,0,0],"id":6,"left_children":[1,3,5,7,9,11,13,15,17,-1,-1,-1,-1,19,21,-1,-1,23,25,27,29,31,33,-1,-1,35,-1,37,-1,39,41,43,45,-1,47,-1,-1,-1,-1,-1,-1,-1,-1,-1,-1,-1,-1,-1,-1],"loss_changes":[8.4005356E1,3.3107468E1,7.7607605E1,1.4426018E1,1.0557405E1,1.0252335E1,3.8083202E1,5.889625E0,8.5024185E0,0E0,0E0,0E0,0E0,1.8801682E1,3.1303513E1,0E0,0E0,3.6095946E0,3.5331345E0,1.0994593E1,1.2545502E1,2.4196922E1,1.600256E1,0E0,0E0,1.605835E-1,0E0,3.1881504E0,0E0,3.2446976E0,8.878685E0,1.2966019E1,1.6828281E1,0E0,7.8753014E0,0E0,0E0,0E0,0E0,0E0,0E0,0E0,0E0,0E0,0E0,0E0,0E0,0E0,0E0],"parents":[2147483647,0,0,1,1,2,2,3,3,4,4,5,5,6,6,7,7,8,8,13,13,14,14,17,17,18,18,19,19,20,20,21,21,22,22,25,25,27,27,29,29,30,30,31,31,32,32,34,34],"right_children":[2,4,6,8,10,12,14,16,18,-1,-1,-1,-1,20,22,-1,-1,24,26,28,30,32,34,-1,-1,36,-1,38,-1,40,42,44,46,-1,48,-1,-1,-1,-1,-1,-1,-1,-1,-1,-1,-1,-1,-1,-1],"split_conditions":[4.813871E-3,9.331377E-3,9.138804E-3,7.915117E-3,2.8208278E-2,3.9283037E-2,3.627551E-2,8.6100325E-3,1.6447457E-2,-1.2885468E-1,1.0094012E-1,1.3984884E-1,-7.05817E-2,1.768741E-2,3.5236835E-2,8.639716E-2,-1.1837274E-1,1.0546349E-2,2.230041E-2,1.2356389E-2,2.867109E-2,1.3240208E-2,1.1591181E-2,7.653771E-2,-9.974103E-2,3.7632897E-2,1.7794518E-3,3.186022E-2,-9.330327E-2,3.6712017E-2,1.1660194E-2,2.4453942E-2,1.7882228E-2,-1.1207427E-1,1.0286291E-2,1.4234094E-1,3.7773833E-2,1.4534494E-1,-1.8300591E-2,-1.3296142E-1,2.7028695E-2,1.1669266E-1,-9.6834674E-2,-1.2566042E-1,5.6978296E-2,-7.6340996E-2,8.98984E-2,-6.1828047E-2,1.5252484E-1],"split_indices":[765,1314,49,2872,775,2340,4298,180,34,0,0,0,0,1696,212,0,0,37,2854,973,3423,2938,395,0,0,1922,0,4446,0,227,3872,1522,3461,0,1262,0,0,0,0,0,0,0,0,0,0,0,0,0,0],"split_type":[0,0,0,0,0,0,0,0,0,0,0,0,0,0,0,0,0,0,0,0,0,0,0,0,0,0,0,0,0,0,0,0,0,0,0,0,0,0,0,0,0,0,0,0,0,0,0,0,0],"sum_hessian":[2.7000934E2,7.5469086E1,1.9454025E2,6.620026E1,9.268831E0,2.6980736E1,1.6755951E2,4.2700915E0,6.1930164E1,7.4652395E0,1.8035921E0,2.5038345E1,1.9423906E0,3.3574707E1,1.339848E2,1.3040321E0,2.9660594E0,2.8439603E0,5.9086205E1,1.7270744E1,1.630396E1,1.2045665E2,1.3528158E1,1.0716422E0,1.772318E0,5.7182877E1,1.9033291E0,1.5539438E1,1.731307E0,9.0341625E0,7.269798E0,9.768982E1,2.2766832E1,3.2165544E0,1.0311604E1,5.6175873E1,1.0070043E0,1.4476674E1,1.0627638E0,7.9089794E0,1.1251836E0,5.332776E0,1.9370214E0,9.4181496E1,3.50832E0,1.2971091E1,9.795741E0,1.5044955E0,8.807108E0],"tree_param":{"num_deleted":"0","num_feature":"5020","num_nodes":"49","size_leaf_vector":"1"}},{"base_weights":[-2.1431397E-3,8.815157E-1,-3.5530388E-1,1.1667546E0,-5.044249E-1,1.318576E-1,-5.7571024E-1,1.2785428E0,-5.1664215E-1,-9.869107E-1,1.02706484E-1,3.5773128E-1,-7.912718E-1,1.320513E0,-5.143707E-2,7.607873E-2,-1.0942683E-1,-1.24391794E-1,5.9207566E-2,9.327257E-1,-5.1845884E-1,-1.056362E0,-1.2775965E-1,1.3419179E0,6.79237E-3,1.1922402E0,-8.318161E-2,-1.1571159E0,8.2236135E-1,-1.1222279E0,1.0818958E-1,-8.7792015E-1,7.2414184E-1,1.3519016E-1,3.9412294E-2,1.3307504E-1,-4.3690827E-2,-1.296833E-1,-2.4065857E-3,1.3225372E-1,-5.0186645E-2,5.6894846E-2,-1.1945971E-1,-1.15819864E-1,1.0668E-1,-9.264392E-2,1.2821315E-1],"categories":[],"categories_nodes":[],"categories_segments":[],"categories_sizes":[],"default_left":[1,1,0,1,1,0,0,1,0,1,0,0,1,1,0,0,0,0,0,1,1,1,1,1,0,1,0,1,1,0,0,1,0,0,0,0,0,0,0,0,0,0,0,0,0,0,0],"id":7,"left_children":[1,3,5,7,9,-1,11,13,15,17,-1,19,21,23,-1,-1,-1,-1,-1,25,27,29,31,33,-1,35,-1,37,39,41,-1,43,45,-1,-1,-1,-1,-1,-1,-1,-1,-1,-1,-1,-1,-1,-1],"loss_changes":[8.170777E1,3.0143463E1,6.977087E1,1.2384903E1,1.0958405E1,0E0,3.3682316E1,5.0971756E0,4.220735E0,5.0966206E0,0E0,1.6519352E1,2.3638283E1,1.4544983E0,0E0,0E0,0E0,0E0,0E0,9.95562E0,1.2301543E1,1.4796196E1,2.6020473E1,3.0059814E-3,0E0,4.5249825E0,0E0,1.4558239E0,3.8833475E0,1.2189926E1,0E0,1.2994867E1,1.8822905E1,0E0,0E0,0E0,0E0,0E0,0E0,0E0,0E0,0E0,0E0,0E0,0E0,0E0,0E0],"parents":[2147483647,0,0,1,1,2,2,3,3,4,4,6,6,7,7,8,8,9,9,11,11,12,12,13,13,19,19,20,20,21,21,22,22,23,23,25,25,27,27,28,28,29,29,31,31,32,32],"right_children":[2,4,6,8,10,-1,12,14,16,18,-1,20,22,24,-1,-1,-1,-1,-1,26,28,30,32,34,-1,36,-1,38,40,42,-1,44,46,-1,-1,-1,-1,-1,-1,-1,-1,-1,-1,-1,-1,-1,-1],"split_conditions":[4.647366E-3,6.1775995E-3,7.752897E-3,9.57586E-3,1.0421855E-2,1.318576E-1,2.93443E-2,1.0615741E-2,1.1266526E-2,1.3628971E-2,1.02706484E-1,2.9999126E-2,1.5235009E-2,5.2308682E-2,-5.143707E-2,7.607873E-2,-1.0942683E-1,-1.24391794E-1,5.9207566E-2,1.1118642E-2,9.278484E-3,2.8269174E-2,9.705938E-3,2.9634714E-2,6.79237E-3,2.594178E-2,-8.318161E-2,1.6842214E-2,9.818892E-3,7.3982575E-3,1.0818958E-1,2.595352E-2,1.813837E-2,1.3519016E-1,3.9412294E-2,1.3307504E-1,-4.3690827E-2,-1.296833E-1,-2.4065857E-3,1.3225372E-1,-5.0186645E-2,5.6894846E-2,-1.1945971E-1,-1.15819864E-1,1.0668E-1,-9.264392E-2,1.2821315E-1],"split_indices":[765,2464,3965,2917,4897,0,2968,4682,381,1697,0,1645,1855,1840,0,0,0,0,0,1956,1349,153,4803,1157,0,3154,0,1825,358,4374,0,2365,1663,0,0,0,0,0,0,0,0,0,0,0,0,0,0],"split_type":[0,0,0,0,0,0,0,0,0,0,0,0,0,0,0,0,0,0,0,0,0,0,0,0,0,0,0,0,0,0,0,0,0,0,0,0,0,0,0,0,0,0,0,0,0,0,0],"sum_hessian":[2.5981848E2,7.376123E1,1.8605727E2,6.130273E1,1.2458502E1,2.1068642E1,1.6498862E2,5.771087E1,3.5918634E0,9.744232E0,2.714269E0,3.082936E1,1.3415926E2,5.664827E1,1.062599E0,1.0196964E0,2.5721672E0,8.562709E0,1.1815237E0,1.8575062E1,1.2254297E1,9.543745E1,3.8721813E1,5.5626385E1,1.0218856E0,1.647621E1,2.098853E0,8.393384E0,3.8609133E0,9.3046455E1,2.3909888E0,2.0574203E1,1.8147608E1,5.462463E1,1.0017524E0,1.5353977E1,1.1222318E0,7.3433247E0,1.0500594E0,2.8033376E0,1.0575756E0,3.536693E0,8.9509766E1,1.8336008E1,2.2381968E0,4.41812E0,1.3729488E1],"tree_param":{"num_deleted":"0","num_feature":"5020","num_nodes":"47","size_leaf_vector":"1"}},{"base_weights":[1.7594295E-2,3.277503E-1,-8.550396E-1,6.561677E-1,-5.290912E-1,6.38737E-1,-1.081473E0,8.0705655E-1,-6.8560034E-1,-8.937391E-1,4.359173E-1,1.1659739E0,-8.9417346E-2,-1.2443587E0,7.1303344E-1,9.330005E-1,-5.536741E-1,-1.0249041E0,1.0574017E-1,3.464809E-1,-1.1907055E0,-9.534558E-2,9.4670516E-1,1.301863E-1,1.956936E-2,4.1740768E-2,-1.28688E0,1.2745765E-1,-7.236182E-2,1.0576233E0,-2.7483746E-1,9.381017E-2,-1.1606612E-1,4.6760503E-2,-1.2696387E-1,1.2109448E-1,-8.4911615E-2,5.4400988E-2,-1.2908208E0,-4.8419344E-1,1.3591782E0,-1.3262951E-1,3.1368688E-2,1.15238324E-1,-1.9599712E-2,7.797591E-2,-1.1797509E-1,-1.3379493E-1,6.3097524E-4,-8.038216E-2,1.1861044E-2,1.4737527E-1,2.240433E-2],"categories":[],"categories_nodes":[],"categories_segments":[],"categories_sizes":[],"default_left":[1,1,0,1,0,1,1,1,1,0,0,1,0,0,0,1,0,0,0,1,0,0,0,0,0,0,1,0,0,1,1,0,0,0,0,0,0,0,1,0,1,0,0,0,0,0,0,0,0,0,0,0,0],"id":8,"left_children":[1,3,5,7,9,11,13,15,17,19,21,23,-1,25,27,29,31,33,-1,35,37,-1,39,-1,-1,-1,41,-1,-1,43,45,-1,-1,-1,-1,-1,-1,-1,47,49,51,-1,-1,-1,-1,-1,-1,-1,-1,-1,-1,-1,-1],"loss_changes":[6.7373245E1,5.2016083E1,2.2771389E1,2.7517212E1,1.8487186E1,8.495602E0,1.756559E1,2.1112335E1,9.365678E0,1.4280479E1,1.1389091E1,7.0717144E-1,0E0,4.2592163E0,5.2657456E0,1.6904083E1,1.087585E1,5.0608196E0,0E0,9.347093E0,6.0173836E0,0E0,7.331044E0,0E0,0E0,0E0,3.671669E0,0E0,0E0,1.2135323E1,1.1528596E1,0E0,0E0,0E0,0E0,0E0,0E0,0E0,1.7954025E0,7.248406E-1,8.4539604E-1,0E0,0E0,0E0,0E0,0E0,0E0,0E0,0E0,0E0,0E0,0E0,0E0],"parents":[2147483647,0,0,1,1,2,2,3,3,4,4,5,5,6,6,7,7,8,8,9,9,10,10,11,11,13,13,14,14,15,15,16,16,17,17,19,19,20,20,22,22,26,26,29,29,30,30,38,38,39,39,40,40],"right_children":[2,4,6,8,10,12,14,16,18,20,22,24,-1,26,28,30,32,34,-1,36,38,-1,40,-1,-1,-1,42,-1,-1,44,46,-1,-1,-1,-1,-1,-1,-1,48,50,52,-1,-1,-1,-1,-1,-1,-1,-1,-1,-1,-1,-1],"split_conditions":[1.6869336E-2,7.6870564E-3,1.1211102E-2,1.688885E-2,3.0295359E-2,1.1492837E-2,1.9458786E-2,9.842707E-3,1.4321378E-2,8.625394E-3,8.259402E-3,8.759351E-3,-8.9417346E-2,6.592192E-3,2.7096752E-2,9.143103E-3,8.255315E-3,1.6010981E-2,1.0574017E-1,1.2440988E-2,1.06784105E-2,-9.534558E-2,1.4476423E-2,1.301863E-1,1.956936E-2,4.1740768E-2,2.2074068E-2,1.2745765E-1,-7.236182E-2,1.0680846E-2,8.727305E-3,9.381017E-2,-1.1606612E-1,4.6760503E-2,-1.2696387E-1,1.2109448E-1,-8.4911615E-2,5.4400988E-2,3.2366794E-2,3.157003E-2,1.5111433E-2,-1.3262951E-1,3.1368688E-2,1.15238324E-1,-1.9599712E-2,7.797591E-2,-1.1797509E-1,-1.3379493E-1,6.3097524E-4,-8.038216E-2,1.1861044E-2,1.4737527E-1,2.240433E-2],"split_indices":[1258,3061,3983,3197,178,670,4004,3442,1629,68,3637,1155,0,3589,91,4893,655,982,0,4879,1898,0,2990,0,0,0,4567,0,0,2734,4254,0,0,0,0,0,0,0,2391,61,2089,0,0,0,0,0,0,0,0,0,0,0,0],"split_type":[0,0,0,0,0,0,0,0,0,0,0,0,0,0,0,0,0,0,0,0,0,0,0,0,0,0,0,0,0,0,0,0,0,0,0,0,0,0,0,0,0,0,0,0,0,0,0,0,0,0,0,0,0],"sum_hessian":[2.468934E2,1.8261267E2,6.428072E1,1.3218275E2,5.0429916E1,8.221671E0,5.605905E1,1.1917897E2,1.3003788E1,3.6653503E1,1.3776413E1,6.2956767E0,1.925994E0,5.1675125E1,4.3839273E0,1.09370415E2,9.80856E0,1.1229727E1,1.7740608E0,7.0488176E0,2.9604687E1,3.4703147E0,1.0306098E1,5.2225165E0,1.0731602E0,1.0693115E0,5.0605812E1,3.2330444E0,1.1508831E0,9.925392E1,1.011649E1,2.6789856E0,7.1295753E0,1.4536996E0,9.776028E0,4.0834703E0,2.965347E0,1.3734156E0,2.823127E1,2.2671866E0,8.038912E0,4.95568E1,1.0490127E0,9.2353745E1,6.9001746E0,4.7357264E0,5.380764E0,2.7211142E1,1.0201288E0,1.2636718E0,1.0035149E0,7.030939E0,1.0079724E0],"tree_param":{"num_deleted":"0","num_feature":"5020","num_nodes":"53","size_leaf_vector":"1"}},{"base_weights":[-2.7004205E-2,6.6446984E-1,-4.0381563E-1,8.803392E-1,-7.741037E-1,1.2368112E-1,-6.077875E-1,1.0678769E0,-3.9084497E-1,-1.1831936E0,8.5250184E-2,-7.138808E-1,8.219649E-1,1.1777143E0,-3.832099E-1,8.717294E-2,-1.1005856E-1,-1.2560247E-1,-2.8355455E-2,2.4639237E-1,-9.015734E-1,1.2037315E0,-8.363328E-2,1.2232056E0,-6.1983366E-2,-9.993103E-2,7.583989E-2,8.7872404E-1,-9.7006774E-1,1.0168083E-1,-9.686877E-1,1.3385613E-1,1.03588775E-2,1.2661922E-1,-4.589768E-2,1.21226184E-1,-7.152388E-2,1.2142851E-2,-1.1649151E-1,-1.0693743E-1,3.9082024E-2],"categories":[],"categories_nodes":[],"categories_segments":[],"categories_sizes":[],"default_left":[1,1,0,1,0,0,1,1,0,0,0,0,1,1,1,0,0,0,0,1,0,1,0,1,0,0,0,1,0,0,0,0,0,0,0,0,0,0,0,0,0],"id":9,"left_children":[1,3,5,7,9,-1,11,13,15,17,-1,19,21,23,25,-1,-1,-1,-1,27,29,31,-1,33,-1,-1,-1,35,37,-1,39,-1,-1,-1,-1,-1,-1,-1,-1,-1,-1],"loss_changes":[6.1407837E1,2.6501747E1,5.1786423E1,1.7764065E1,8.581766E0,0E0,2.1263596E1,1.0600487E1,9.998277E0,2.6712227E-1,0E0,2.3189873E1,7.2622137E0,5.6189346E0,4.4401E0,0E0,0E0,0E0,0E0,1.748297E1,1.4736954E1,1.1135387E0,0E0,4.797722E0,0E0,0E0,0E0,8.70906E0,1.815208E0,0E0,1.4614548E1,0E0,0E0,0E0,0E0,0E0,0E0,0E0,0E0,0E0,0E0],"parents":[2147483647,0,0,1,1,2,2,3,3,4,4,6,6,7,7,8,8,9,9,11,11,12,12,13,13,14,14,19,19,20,20,21,21,23,23,27,27,28,28,30,30],"right_children":[2,4,6,8,10,-1,12,14,16,18,-1,20,22,24,26,-1,-1,-1,-1,28,30,32,-1,34,-1,-1,-1,36,38,-1,40,-1,-1,-1,-1,-1,-1,-1,-1,-1,-1],"split_conditions":[4.952707E-3,8.404634E-3,7.7032065E-3,8.643612E-3,4.717229E-2,1.2368112E-1,3.6019668E-2,1.0826658E-2,2.2463843E-2,2.2047283E-2,8.5250184E-2,1.0728518E-2,2.1479988E-2,3.0154027E-2,1.4452444E-2,8.717294E-2,-1.1005856E-1,-1.2560247E-1,-2.8355455E-2,1.3226801E-2,1.063239E-2,8.362256E-3,-8.363328E-2,2.080726E-2,-6.1983366E-2,-9.993103E-2,7.583989E-2,2.6490632E-2,6.067858E-3,1.0168083E-1,2.3668249E-1,1.3385613E-1,1.03588775E-2,1.2661922E-1,-4.589768E-2,1.21226184E-1,-7.152388E-2,1.2142851E-2,-1.1649151E-1,-1.0693743E-1,3.9082024E-2],"split_indices":[3667,4158,751,2820,4485,0,4596,4316,453,3208,0,1054,3250,2038,83,0,0,0,0,3175,4196,2198,0,1030,0,0,0,1120,70,0,1115,0,0,0,0,0,0,0,0,0,0],"split_type":[0,0,0,0,0,0,0,0,0,0,0,0,0,0,0,0,0,0,0,0,0,0,0,0,0,0,0,0,0,0,0,0,0,0,0,0,0,0,0,0,0],"sum_hessian":[2.3365079E2,8.21453E1,1.515055E2,7.176451E1,1.0380785E1,1.6193235E1,1.3531226E2,6.2677624E1,9.08689E0,8.512499E0,1.8682865E0,1.2643126E2,8.881003E0,5.8442326E1,4.235298E0,3.1878002E0,5.89909E0,7.5084996E0,1.003999E0,2.0620401E1,1.0581085E2,7.4418797E0,1.4391237E0,5.731144E1,1.1308862E0,2.8317266E0,1.4035714E0,1.3750403E1,6.8699985E0,3.098333E0,1.02712524E2,6.4363475E0,1.0055324E0,5.612452E1,1.1869185E0,1.156904E1,2.1813624E0,1.0977005E0,5.772298E0,9.582876E1,6.8837676E0],"tree_param":{"num_deleted":"0","num_feature":"5020","num_nodes":"41","size_leaf_vector":"1"}},{"base_weights":[1.9799415E-2,1.0412396E0,-2.1495037E-1,-1.9833592E-1,1.22649394E-1,1.1372895E0,-4.1207394E-1,8.6425856E-2,-1.0249784E-1,1.2166011E-1,-2.9575003E-2,-7.0988E-1,4.1106787E-2,9.016737E-1,-8.832757E-1,5.279189E-1,-9.674556E-1,1.2581956E-1,-7.497716E-2,-9.9046266E-1,5.074648E-1,-2.4227984E-1,1.1464341E0,-1.111611E0,8.087628E-2,9.993988E-3,-1.10254124E-1,-7.442804E-2,1.1354269E-1,-1.0194563E-1,6.516426E-2,1.3568346E-1,-3.598745E-2,-1.2191074E-1,3.6551382E-2],"categories":[],"categories_nodes":[],"categories_segments":[],"categories_sizes":[],"default_left":[1,0,0,0,0,1,0,0,0,0,0,0,1,0,1,0,1,0,0,1,0,1,1,1,0,0,0,0,0,0,0,0,0,0,0],"id":10,"left_children":[1,3,5,7,-1,9,11,-1,-1,-1,-1,13,15,17,19,21,23,-1,-1,25,27,29,31,33,-1,-1,-1,-1,-1,-1,-1,-1,-1,-1,-1],"loss_changes":[5.404286E1,9.914387E0,4.9337902E1,6.451755E0,0E0,3.0411205E0,2.1723028E1,0E0,0E0,0E0,0E0,2.7917E1,3.227143E1,6.7858095E0,1.364032E1,2.1370087E1,6.381605E0,0E0,0E0,1.0151489E1,6.321972E0,1.4938097E1,8.326134E0,3.6571732E0,0E0,0E0,0E0,0E0,0E0,0E0,0E0,0E0,0E0,0E0,0E0],"parents":[2147483647,0,0,1,1,2,2,3,3,5,5,6,6,11,11,12,12,13,13,14,14,15,15,16,16,19,19,20,20,21,21,22,22,23,23],"right_children":[2,4,6,8,-1,10,12,-1,-1,-1,-1,14,16,18,20,22,24,-1,-1,26,28,30,32,34,-1,-1,-1,-1,-1,-1,-1,-1,-1,-1,-1],"split_conditions":[3.7714546E-3,1.1705302E-2,7.2889123E-3,5.4788664E-3,1.22649394E-1,1.0021827E-2,2.2751885E-2,8.6425856E-2,-1.0249784E-1,1.2166011E-1,-2.9575003E-2,7.401862E-3,7.0044613E-3,3.2026283E-2,3.723411E-2,2.010933E-2,2.3873447E-2,1.2581956E-1,-7.497716E-2,4.4162157E-3,1.03475405E-2,1.0198831E-2,1.1444733E-2,1.574125E-2,8.087628E-2,9.993988E-3,-1.10254124E-1,-7.442804E-2,1.1354269E-1,-1.0194563E-1,6.516426E-2,1.3568346E-1,-3.598745E-2,-1.2191074E-1,3.6551382E-2],"split_indices":[4871,413,1652,204,0,4288,3204,0,0,0,0,3754,3190,1115,4596,4926,4141,0,0,686,4618,3220,3501,2879,0,0,0,0,0,0,0,0,0,0,0],"split_type":[0,0,0,0,0,0,0,0,0,0,0,0,0,0,0,0,0,0,0,0,0,0,0,0,0,0,0,0,0,0,0,0,0,0,0],"sum_hessian":[2.2344907E2,4.1114906E1,1.8233417E2,5.3365192E0,3.5778385E1,2.259134E1,1.5974283E2,2.3151028E0,3.0214167E0,2.1549706E1,1.0416338E0,9.605451E1,6.3688313E1,8.923033E0,8.713148E1,4.3276302E1,2.0412008E1,7.53456E0,1.3884727E0,8.116385E1,5.9676323E0,1.9545628E1,2.3730677E1,1.9225838E1,1.1861714E0,7.57506E0,7.358879E1,1.931752E0,4.03588E0,1.0380441E1,9.165187E0,2.0909306E1,2.8213716E0,1.8084435E1,1.1414028E0],"tree_param":{"num_deleted":"0","num_feature":"5020","num_nodes":"35","size_leaf_vector":"1"}},{"base_weights":[6.3506598E-3,9.5682436E-1,-2.2609411E-1,1.156887E0,-2.6266065E-1,1.1153165E0,-4.2187452E-1,1.2236368E-1,-2.0290798E-2,-1.04052685E-1,8.5361935E-2,-1.5416893E-2,1.1836951E-1,-6.617782E-2,-7.972746E-1,-7.446681E-1,2.7662405E-1,9.760772E-1,-9.047741E-1,6.4952165E-1,-1.1554539E0,6.911153E-1,-4.1134536E-1,-5.577488E-3,1.2771304E-1,-1.0226212E0,3.9090967E-1,1.0684606E-1,-7.4132614E-2,-1.2771949E-1,1.6755203E-2,-3.8619634E-2,1.01352595E-1,-9.844101E-2,3.47686E-2,-1.0822733E-1,9.199309E-2,1.285095E-1,-7.739364E-2],"categories":[],"categories_nodes":[],"categories_segments":[],"categories_sizes":[],"default_left":[1,1,0,1,1,0,1,0,0,0,0,0,0,0,0,0,1,0,1,0,1,0,0,0,0,1,0,0,0,0,0,0,0,0,0,0,0,0,0],"id":11,"left_children":[1,3,5,7,9,11,13,-1,-1,-1,-1,-1,-1,15,17,19,21,23,25,27,29,31,33,-1,-1,35,37,-1,-1,-1,-1,-1,-1,-1,-1,-1,-1,-1,-1],"loss_changes":[4.7277622E1,1.0562519E1,4.5631966E1,3.5437355E0,6.7415314E0,2.1075058E0,2.0081686E1,0E0,0E0,0E0,0E0,0E0,0E0,1.8467897E1,1.4851177E1,1.5999107E1,1.5366535E1,1.521574E0,1.1027523E1,4.6958356E0,3.5843487E0,1.1985075E1,9.264569E0,0E0,0E0,8.420616E0,7.7922564E0,0E0,0E0,0E0,0E0,0E0,0E0,0E0,0E0,0E0,0E0,0E0,0E0],"parents":[2147483647,0,0,1,1,2,2,3,3,4,4,5,5,6,6,13,13,14,14,15,15,16,16,17,17,18,18,19,19,20,20,21,21,22,22,25,25,26,26],"right_children":[2,4,6,8,10,12,14,-1,-1,-1,-1,-1,-1,16,18,20,22,24,26,28,30,32,34,-1,-1,36,38,-1,-1,-1,-1,-1,-1,-1,-1,-1,-1,-1,-1],"split_conditions":[4.814354E-3,8.695447E-3,7.3561417E-3,8.804979E-3,1.2352278E-2,7.432644E-3,1.3817347E-2,1.2236368E-1,-2.0290798E-2,-1.04052685E-1,8.5361935E-2,-1.5416893E-2,1.1836951E-1,1.2801437E-2,1.2252087E-2,8.466837E-3,9.186617E-3,5.9940866E-3,1.9187897E-2,1.9165777E-2,1.900045E-2,9.91784E-3,1.8925468E-2,-5.577488E-3,1.2771304E-1,6.257407E-2,2.8103521E-2,1.0684606E-1,-7.4132614E-2,-1.2771949E-1,1.6755203E-2,-3.8619634E-2,1.01352595E-1,-9.844101E-2,3.47686E-2,-1.0822733E-1,9.199309E-2,1.285095E-1,-7.739364E-2],"split_indices":[576,2579,1652,2818,2663,1512,4451,0,0,0,0,0,0,1311,3019,3203,3658,416,1005,2220,781,47,212,0,0,4995,1363,0,0,0,0,0,0,0,0,0,0,0,0],"split_type":[0,0,0,0,0,0,0,0,0,0,0,0,0,0,0,0,0,0,0,0,0,0,0,0,0,0,0,0,0,0,0,0,0,0,0,0,0,0,0],"sum_hessian":[2.1201193E2,4.104821E1,1.7096373E2,3.5307213E1,5.7409964E0,2.1176168E1,1.4978757E2,3.3750595E1,1.5566169E0,3.423343E0,2.3176532E0,1.0181948E0,2.0157972E1,7.751619E1,7.227137E1,2.5625214E1,5.1890976E1,3.6688511E0,6.860252E1,5.699655E0,1.9925558E1,3.2378716E1,1.9512262E1,1.0126734E0,2.6561778E0,6.3076263E1,5.5262585E0,4.5584044E0,1.1412507E0,1.827825E1,1.6473083E0,7.4125113E0,2.4966204E1,1.094894E1,8.563322E0,6.1626682E1,1.4495809E0,3.067943E0,2.4583154E0],"tree_param":{"num_deleted":"0","num_feature":"5020","num_nodes":"39","size_leaf_vector":"1"}},{"base_weights":[9.7566135E-3,1.097479E0,-1.852451E-1,1.2104318E-1,-2.922264E-1,1.0993811E0,-3.501177E-1,-7.563662E-2,3.474695E-2,1.1714339E-1,-1.284299E-2,7.4626184E-1,-4.8477787E-1,1.0168315E0,-8.623761E-2,1.1287715E-1,-5.71521E-1,-3.6203455E-2,1.17483035E-1,-6.322454E-2,-8.567631E-1,4.1757733E-2,-8.275816E-2,-9.598349E-2,4.086501E-2],"categories":[],"categories_nodes":[],"categories_segments":[],"categories_sizes":[],"default_left":[1,1,0,0,0,1,1,0,0,0,0,1,0,0,0,0,1,0,0,1,1,0,0,0,0],"id":12,"left_children":[1,3,5,-1,7,9,11,-1,-1,-1,-1,13,15,17,-1,-1,19,-1,-1,21,23,-1,-1,-1,-1],"loss_changes":[4.311097E1,5.203682E0,3.6898056E1,0E0,1.1915505E0,1.9065666E0,2.303083E1,0E0,0E0,0E0,0E0,8.358636E0,1.9869858E1,3.731021E0,0E0,0E0,1.8940819E1,0E0,0E0,1.8049145E1,1.1327179E1,0E0,0E0,0E0,0E0],"parents":[2147483647,0,0,1,1,2,2,4,4,5,5,6,6,11,11,12,12,13,13,16,16,19,19,20,20],"right_children":[2,4,6,-1,8,10,12,-1,-1,-1,-1,14,16,18,-1,-1,20,-1,-1,22,24,-1,-1,-1,-1],"split_conditions":[5.009981E-3,4.940333E-3,9.947087E-3,1.2104318E-1,9.661382E-3,1.741404E-2,6.084983E-3,-7.563662E-2,3.474695E-2,1.1714339E-1,-1.284299E-2,1.1768631E-2,8.186206E-3,8.033712E-3,-8.623761E-2,1.1287715E-1,4.8203925E-3,-3.6203455E-2,1.17483035E-1,2.8200103E-2,3.723411E-2,4.1757733E-2,-8.275816E-2,-9.598349E-2,4.086501E-2],"split_indices":[1863,4912,452,0,484,2813,4387,0,0,0,0,3647,1943,51,0,0,3125,0,0,227,4596,0,0,0,0],"split_type":[0,0,0,0,0,0,0,0,0,0,0,0,0,0,0,0,0,0,0,0,0,0,0,0,0],"sum_hessian":[2.0129185E2,2.9897139E1,1.7139471E2,2.7769115E1,2.1280239E0,1.8850508E1,1.5254422E2,1.1275389E0,1.0004848E0,1.7848976E1,1.0015316E0,1.6189587E1,1.3635463E2,1.4173522E1,2.016065E0,6.3434944E0,1.3001114E2,1.3243613E0,1.284916E1,4.7172405E1,8.283873E1,2.9235899E1,1.7936506E1,7.682277E1,6.0159616E0],"tree_param":{"num_deleted":"0","num_feature":"5020","num_nodes":"25","size_leaf_vector":"1"}},{"base_weights":[2.141013E-2,7.4887514E-1,-2.4530847E-1,1.0778974E0,-1.2316818E-1,1.1012877E0,-4.1931248E-1,1.1654108E0,-6.395484E-2,8.0274796E-1,-7.873952E-1,1.14548944E-1,2.1043267E-2,1.6662076E-1,-6.666844E-1,1.18810594E-1,2.1276474E-2,-4.1527685E-2,1.1080277E-1,-1.09022275E-1,5.0287154E-2,5.36882E-1,-6.3211584E-1,-7.860208E-1,6.4136523E-1,1.0572221E0,-2.0567235E-1,-1.0302022E0,5.8906925E-1,-9.1083723E-1,7.393483E-1,-8.0337785E-2,1.1477971E0,1.19982176E-1,-5.3723283E-2,-6.1779756E-2,1.0093682E-1,-1.12143755E-1,-1.0767325E-2,9.9519014E-2,-2.3638664E-2,-1.0083171E-1,2.680271E-2,1.0822679E-1,-6.134761E-2,2.756401E-2,1.2724978E-1],"categories":[],"categories_nodes":[],"categories_segments":[],"categories_sizes":[],"default_left":[1,1,0,1,1,0,0,1,0,0,1,0,0,0,0,0,0,0,0,0,0,0,0,1,0,0,0,1,1,1,1,0,0,0,0,0,0,0,0,0,0,0,0,0,0,0,0],"id":13,"left_children":[1,3,5,7,9,11,13,15,-1,17,19,-1,-1,21,23,-1,-1,-1,-1,-1,-1,25,27,29,31,33,35,37,39,41,43,-1,45,-1,-1,-1,-1,-1,-1,-1,-1,-1,-1,-1,-1,-1,-1],"loss_changes":[3.7972275E1,1.5195059E1,3.402988E1,6.4894524E0,1.0028555E1,4.1534615E-1,1.8604753E1,5.4110336E-1,0E0,3.0173364E0,4.2215495E0,0E0,0E0,1.1777648E1,1.453978E1,0E0,0E0,0E0,0E0,0E0,0E0,1.0637041E1,6.7854047E0,1.644688E1,6.8252244E0,4.286789E0,6.606635E0,7.1660805E-1,1.4959829E0,9.122128E0,3.827056E0,0E0,3.4374905E-1,0E0,0E0,0E0,0E0,0E0,0E0,0E0,0E0,0E0,0E0,0E0,0E0,0E0,0E0],"parents":[2147483647,0,0,1,1,2,2,3,3,4,4,5,5,6,6,7,7,9,9,10,10,13,13,14,14,21,21,22,22,23,23,24,24,25,25,26,26,27,27,28,28,29,29,30,30,32,32],"right_children":[2,4,6,8,10,12,14,16,-1,18,20,-1,-1,22,24,-1,-1,-1,-1,-1,-1,26,28,30,32,34,36,38,40,42,44,-1,46,-1,-1,-1,-1,-1,-1,-1,-1,-1,-1,-1,-1,-1,-1],"split_conditions":[4.647366E-3,9.115498E-3,7.5969254E-3,9.4340155E-3,7.1646487E-3,5.0658584E-2,1.2945652E-2,1.1302446E-2,-6.395484E-2,9.427201E-3,1.0179724E-2,1.14548944E-1,2.1043267E-2,2.1949545E-2,3.3814497E-2,1.18810594E-1,2.1276474E-2,-4.1527685E-2,1.1080277E-1,-1.09022275E-1,5.0287154E-2,1.2377667E-2,3.273788E-2,2.6794706E-2,1.07576065E-2,2.7783917E-2,8.008604E-2,9.906046E-3,2.7210661E-3,1.4052187E-2,8.597798E-3,-8.0337785E-2,1.5085254E-2,1.19982176E-1,-5.3723283E-2,-6.1779756E-2,1.0093682E-1,-1.12143755E-1,-1.0767325E-2,9.9519014E-2,-2.3638664E-2,-1.0083171E-1,2.680271E-2,1.0822679E-1,-6.134761E-2,2.756401E-2,1.2724978E-1],"split_indices":[765,4126,1953,2327,363,2398,3529,590,0,2512,4968,0,0,2413,212,0,0,0,0,0,0,3186,202,4667,718,3848,1665,1595,4084,1972,266,0,1419,0,0,0,0,0,0,0,0,0,0,0,0,0,0],"split_type":[0,0,0,0,0,0,0,0,0,0,0,0,0,0,0,0,0,0,0,0,0,0,0,0,0,0,0,0,0,0,0,0,0,0,0,0,0,0,0,0,0,0,0,0,0,0,0],"sum_hessian":[1.9375789E2,5.1496197E1,1.4226169E2,3.7217834E1,1.4278362E1,1.5669352E1,1.2659233E2,3.5719173E1,1.498661E0,5.8771772E0,8.401185E0,1.4656315E1,1.0130359E0,3.7676643E1,8.8915695E1,3.464661E1,1.0725608E0,1.1056136E0,4.7715635E0,6.9297934E0,1.471392E0,2.5967173E1,1.1709469E1,8.184763E1,7.06806E0,1.5018966E1,1.0948208E1,8.948724E0,2.7607458E0,7.602926E1,5.818373E0,1.6823429E0,5.385717E0,1.4013204E1,1.0057621E0,8.542314E0,2.4058948E0,7.9471607E0,1.0015627E0,1.7125521E0,1.0481937E0,7.035619E1,5.6730633E0,4.801311E0,1.0170624E0,1.0753222E0,4.310395E0],"tree_param":{"num_deleted":"0","num_feature":"5020","num_nodes":"47","size_leaf_vector":"1"}},{"base_weights":[9.695981E-3,2.297365E-1,-8.648744E-1,7.2720826E-1,-1.7329623E-1,3.9074874E-1,-1.0234619E0,9.125784E-1,-3.2661092E-1,8.8710225E-1,-4.629746E-1,1.0323584E-1,-4.5811772E-2,-1.1110053E0,5.377216E-2,1.079984E0,-1.0691223E-1,-9.626595E-2,7.759577E-1,1.1049085E0,-6.793837E-2,1.13122575E-1,-7.9961807E-1,-1.5308184E-3,-1.1508535E0,1.1396534E0,-2.6091734E-2,6.617864E-1,-8.0740225E-1,1.0119609E-1,-1.2347933E-3,1.2040019E-1,-1.9074691E-2,6.7981625E-1,-5.401227E-1,1.8861604E-1,-1.0505794E0,-1.1770936E-1,-2.2011267E-2,1.16982125E-1,-9.12829E-3,9.9002674E-2,-2.6924247E-2,-1.0881028E-1,1.32752955E-2,1.0167607E-1,-5.669853E-2,-1.0514598E-1,7.8447625E-2,9.016829E-2,-7.728064E-2,-1.1157435E-1,4.984536E-2],"categories":[],"categories_nodes":[],"categories_segments":[],"categories_sizes":[],"default_left":[1,1,0,1,0,0,0,1,1,0,1,0,0,0,0,1,0,0,0,0,0,1,0,0,1,1,0,1,1,0,0,0,0,1,1,0,1,0,0,0,0,0,0,0,0,0,0,0,0,0,0,0,0],"id":14,"left_children":[1,3,5,7,9,11,13,15,17,19,21,-1,-1,23,-1,25,27,-1,29,31,-1,33,35,-1,37,39,-1,41,43,-1,-1,-1,-1,45,47,49,51,-1,-1,-1,-1,-1,-1,-1,-1,-1,-1,-1,-1,-1,-1,-1,-1],"loss_changes":[3.516423E1,2.9390709E1,7.714714E0,1.3096962E1,2.5427443E1,3.110665E0,5.0927315E0,9.669743E0,8.136729E0,6.8297663E0,1.2623609E1,0E0,0E0,1.3564568E0,0E0,4.1519356E0,5.2759657E0,0E0,8.326931E-1,2.286892E0,0E0,9.515014E0,1.0344908E1,0E0,4.822197E-1,1.8264809E0,0E0,1.7175708E0,1.4792044E0,0E0,0E0,0E0,0E0,6.3213663E0,8.977192E0,6.9583454E0,3.8649483E0,0E0,0E0,0E0,0E0,0E0,0E0,0E0,0E0,0E0,0E0,0E0,0E0,0E0,0E0,0E0,0E0],"parents":[2147483647,0,0,1,1,2,2,3,3,4,4,5,5,6,6,7,7,8,8,9,9,10,10,13,13,15,15,16,16,18,18,19,19,21,21,22,22,24,24,25,25,27,27,28,28,33,33,34,34,35,35,36,36],"right_children":[2,4,6,8,10,12,14,16,18,20,22,-1,-1,24,-1,26,28,-1,30,32,-1,34,36,-1,38,40,-1,42,44,-1,-1,-1,-1,46,48,50,52,-1,-1,-1,-1,-1,-1,-1,-1,-1,-1,-1,-1,-1,-1,-1,-1],"split_conditions":[8.1597585E-3,4.774092E-3,1.3868493E-2,7.286446E-3,8.922558E-3,1.8280515E-2,4.1627023E-2,1.1108109E-2,1.4752641E-2,2.0212555E-2,4.529707E-3,1.0323584E-1,-4.5811772E-2,1.9628214E-2,5.377216E-2,2.0012856E-2,1.6108472E-2,-9.626595E-2,1.4215451E-2,1.18629765E-2,-6.793837E-2,5.9270565E-3,1.6391238E-2,-1.5308184E-3,2.7945014E-2,1.4078618E-2,-2.6091734E-2,9.588608E-3,1.839093E-2,1.0119609E-1,-1.2347933E-3,1.2040019E-1,-1.9074691E-2,9.982847E-3,1.0897744E-2,9.992112E-3,2.4183273E-2,-1.1770936E-1,-2.2011267E-2,1.16982125E-1,-9.12829E-3,9.9002674E-2,-2.6924247E-2,-1.0881028E-1,1.32752955E-2,1.0167607E-1,-5.669853E-2,-1.0514598E-1,7.8447625E-2,9.016829E-2,-7.728064E-2,-1.1157435E-1,4.984536E-2],"split_indices":[3177,5013,1475,870,3495,1673,3383,1346,4444,1341,1628,0,0,2992,0,3846,1180,0,3616,119,0,2825,3004,0,3937,3711,0,2467,563,0,0,0,0,1171,3160,657,4872,0,0,0,0,0,0,0,0,0,0,0,0,0,0,0,0],"split_type":[0,0,0,0,0,0,0,0,0,0,0,0,0,0,0,0,0,0,0,0,0,0,0,0,0,0,0,0,0,0,0,0,0,0,0,0,0,0,0,0,0,0,0,0,0,0,0,0,0,0,0,0,0],"sum_hessian":[1.806949E2,1.449604E2,3.5734493E1,6.451896E1,8.0441444E1,3.8430505E0,3.1891443E1,5.498156E1,9.537403E0,1.6817356E1,6.362409E1,2.0656116E0,1.777439E0,3.047113E1,1.420313E0,4.7175728E1,7.8058305E0,6.1287503E0,3.4086528E0,1.5023173E1,1.794183E0,2.3711176E1,3.9912914E1,1.1178542E0,2.9353277E1,4.530956E1,1.8661697E0,3.7480621E0,4.0577683E0,2.4049437E0,1.003709E0,1.4021527E1,1.0016466E0,1.2674932E1,1.1036244E1,8.133457E0,3.1779457E1,2.829099E1,1.0622857E0,4.427413E1,1.0354261E0,2.7242436E0,1.0238185E0,3.0036182E0,1.0541501E0,1.0123571E1,2.5513606E0,8.111251E0,2.924994E0,4.70557E0,3.4278865E0,3.0764963E1,1.0144928E0],"tree_param":{"num_deleted":"0","num_feature":"5020","num_nodes":"53","size_leaf_vector":"1"}},{"base_weights":[6.125211E-3,4.4590303E-1,-3.9378846E-1,-6.444372E-1,6.3529176E-1,9.668768E-1,-6.1062294E-1,7.755231E-2,-1.0616433E-1,9.2293143E-1,-2.2949245E-2,1.1056685E-1,-3.3230603E-2,-7.431422E-1,7.9938436E-1,1.0337974E0,-4.1803938E-1,3.7333524E-1,-1.0725554E-1,4.5803156E-1,-8.5504115E-1,-4.9949147E-2,1.0835872E-1,1.1039777E0,-4.2264085E-2,-8.6894475E-2,5.4563027E-2,8.3299434E-1,-7.52596E-1,9.374652E-1,-5.9487976E-2,-9.347562E-1,5.9525764E-1,1.1601084E-1,-1.8365128E-2,1.1348895E-1,-3.6396783E-2,-1.0024462E-1,1.852083E-2,1.0327094E-1,2.7298337E-2,-1.0092237E-1,7.08349E-2,1.026541E-1,-3.6040053E-2],"categories":[],"categories_nodes":[],"categories_segments":[],"categories_sizes":[],"default_left":[1,0,0,0,1,1,1,0,0,1,1,0,0,0,0,1,1,1,0,1,1,0,0,1,0,0,0,1,1,0,0,1,1,0,0,0,0,0,0,0,0,0,0,0,0],"id":15,"left_children":[1,3,5,7,9,11,13,-1,-1,15,17,-1,-1,19,21,23,25,27,-1,29,31,-1,-1,33,-1,-1,-1,35,37,39,-1,41,43,-1,-1,-1,-1,-1,-1,-1,-1,-1,-1,-1,-1],"loss_changes":[3.084928E1,1.7658813E1,2.7697124E1,8.440958E0,1.3591736E1,2.7143583E0,1.5516014E1,0E0,0E0,7.851101E0,9.872152E0,0E0,0E0,1.0273033E1,3.2516918E0,5.2072334E0,2.439368E0,9.566106E0,0E0,4.0489917E0,8.371769E0,0E0,0E0,3.4310913E0,0E0,0E0,0E0,5.0166664E0,1.4819984E0,4.3419838E-2,0E0,8.603008E0,2.0734186E0,0E0,0E0,0E0,0E0,0E0,0E0,0E0,0E0,0E0,0E0,0E0,0E0],"parents":[2147483647,0,0,1,1,2,2,3,3,4,4,5,5,6,6,9,9,10,10,13,13,14,14,15,15,16,16,17,17,19,19,20,20,23,23,27,27,28,28,29,29,31,31,32,32],"right_children":[2,4,6,8,10,12,14,-1,-1,16,18,-1,-1,20,22,24,26,28,-1,30,32,-1,-1,34,-1,-1,-1,36,38,40,-1,42,44,-1,-1,-1,-1,-1,-1,-1,-1,-1,-1,-1,-1],"split_conditions":[4.2528184E-3,1.1377592E-2,7.3616956E-3,1.0836447E-2,9.575826E-3,2.514727E-2,1.8022908E-2,7.755231E-2,-1.0616433E-1,3.1733293E-2,9.317333E-3,1.1056685E-1,-3.3230603E-2,1.4171334E-2,9.0247E-3,1.9889666E-2,1.02555705E-2,6.2630572E-3,-1.0725554E-1,7.063445E-3,2.7793173E-2,-4.9949147E-2,1.0835872E-1,1.1610748E-2,-4.2264085E-2,-8.6894475E-2,5.4563027E-2,2.5528938E-2,2.0382287E-2,1.4821984E-2,-5.9487976E-2,1.5109301E-2,5.4556644E-3,1.1601084E-1,-1.8365128E-2,1.1348895E-1,-3.6396783E-2,-1.0024462E-1,1.852083E-2,1.0327094E-1,2.7298337E-2,-1.0092237E-1,7.08349E-2,1.026541E-1,-3.6040053E-2],"split_indices":[4692,1198,191,4050,1172,3498,4049,0,0,1434,3450,0,0,1958,4792,15,3569,2294,0,2597,75,0,0,812,0,0,0,2403,47,1301,0,1379,240,0,0,0,0,0,0,0,0,0,0,0,0],"split_type":[0,0,0,0,0,0,0,0,0,0,0,0,0,0,0,0,0,0,0,0,0,0,0,0,0,0,0,0,0,0,0,0,0,0,0,0,0,0,0,0,0,0,0,0,0],"sum_hessian":[1.73408E2,8.253298E1,9.087502E1,1.185858E1,7.06744E1,1.201572E1,7.88593E1,2.497953E0,9.360627E0,4.890268E1,2.177172E1,1.0990552E1,1.0251687E0,7.251678E1,6.342523E0,4.537992E1,3.522757E0,1.6272326E1,5.499396E0,5.916215E0,6.660056E1,1.0026503E0,5.339873E0,4.352463E1,1.855289E0,2.4668179E0,1.0559392E0,1.1739765E1,4.5325613E0,4.140514E0,1.7757009E0,6.3467567E1,3.132994E0,4.180145E1,1.7231836E0,9.416592E0,2.323173E0,3.5246058E0,1.0079554E0,3.1367476E0,1.0037664E0,6.1084908E1,2.38266E0,2.1076508E0,1.0253432E0],"tree_param":{"num_deleted":"0","num_feature":"5020","num_nodes":"45","size_leaf_vector":"1"}},{"base_weights":[3.279534E-2,7.832643E-1,-1.6549255E-1,9.706732E-1,-6.2751436E-1,9.578673E-1,-3.4145585E-1,-5.0407406E-2,1.0714827E0,-9.399485E-2,2.485376E-2,1.1121588E-1,-4.3721206E-2,4.611601E-2,-7.098637E-1,-2.4422934E-2,1.1435853E0,2.2604738E-1,-1.00063585E-1,-8.171956E-1,9.6206594E-1,1.5407423E-2,1.1751075E-1,5.8331287E-1,-4.3948376E-1,-9.118431E-1,5.7855076E-1,2.6199007E-2,1.1140398E-1,-6.250463E-2,7.769018E-2,5.8043487E-2,-1.0381831E-1,-9.988608E-2,6.527318E-2,8.567557E-2,-1.3906649E-2],"categories":[],"categories_nodes":[],"categories_segments":[],"categories_sizes":[],"default_left":[1,1,0,0,1,0,1,0,0,0,0,0,0,1,1,0,0,1,0,0,1,0,0,0,1,1,0,0,0,0,0,0,0,0,0,0,0],"id":16,"left_children":[1,3,5,7,9,11,13,-1,15,-1,-1,-1,-1,17,19,-1,21,23,-1,25,27,-1,-1,29,31,33,35,-1,-1,-1,-1,-1,-1,-1,-1,-1,-1],"loss_changes":[2.4436369E1,9.681084E0,2.6030012E1,5.1014824E0,1.5011466E0,4.3332405E0,1.6189835E1,0E0,3.0340652E0,0E0,0E0,0E0,0E0,1.07891245E1,1.1207628E1,0E0,6.831322E-1,1.1829329E1,0E0,7.807968E0,1.2971902E-1,0E0,0E0,7.994795E0,1.13323765E1,7.7315254E0,9.4001675E-1,0E0,0E0,0E0,0E0,0E0,0E0,0E0,0E0,0E0,0E0],"parents":[2147483647,0,0,1,1,2,2,3,3,4,4,5,5,6,6,8,8,13,13,14,14,16,16,17,17,19,19,20,20,23,23,24,24,25,25,26,26],"right_children":[2,4,6,8,10,12,14,-1,16,-1,-1,-1,-1,18,20,-1,22,24,-1,26,28,-1,-1,30,32,34,36,-1,-1,-1,-1,-1,-1,-1,-1,-1,-1],"split_conditions":[5.7170736E-3,8.360854E-3,7.7502704E-3,1.7733768E-2,9.956311E-3,2.1620914E-2,7.039016E-3,-5.0407406E-2,1.7735152E-2,-9.399485E-2,2.485376E-2,1.1121588E-1,-4.3721206E-2,1.0768786E-2,1.4738844E-2,-2.4422934E-2,4.3620706E-2,7.1044844E-3,-1.00063585E-1,6.246132E-2,9.742293E-3,1.5407423E-2,1.1751075E-1,9.161293E-3,5.8521093E-3,1.7976863E-2,2.8728504E-2,2.6199007E-2,1.1140398E-1,-6.250463E-2,7.769018E-2,5.8043487E-2,-1.0381831E-1,-9.988608E-2,6.527318E-2,8.567557E-2,-1.3906649E-2],"split_indices":[576,2818,3495,3647,3112,3141,4460,0,2064,0,0,0,0,4453,3560,0,1903,1628,0,4791,772,0,0,2338,1589,3209,667,0,0,0,0,0,0,0,0,0,0],"split_type":[0,0,0,0,0,0,0,0,0,0,0,0,0,0,0,0,0,0,0,0,0,0,0,0,0,0,0,0,0,0,0,0,0,0,0,0,0],"sum_hessian":[1.6234201E2,3.331252E1,1.290295E2,2.9681557E1,3.6309621E0,1.6872286E1,1.1215721E2,1.6431749E0,2.8038382E1,2.6226768E0,1.0082854E0,1.5374691E1,1.4975946E0,5.5083344E1,5.7073864E1,1.3326837E0,2.6705698E1,4.76727E1,7.4106474E0,5.411134E1,2.9625273E0,1.0062526E0,2.5699444E1,3.1100887E1,1.6571812E1,5.099968E1,3.1116605E0,1.0142492E0,1.948278E0,3.9868295E0,2.7114058E1,6.1409154E0,1.0430896E1,4.8655174E1,2.3445024E0,2.1026273E0,1.0090331E0],"tree_param":{"num_deleted":"0","num_feature":"5020","num_nodes":"37","size_leaf_vector":"1"}},{"base_weights":[2.61791E-2,7.951654E-1,-2.0069885E-1,1.0387477E0,-3.824718E-1,1.0841689E-1,-3.4651077E-1,1.1038817E0,-2.0782353E-2,7.4646406E-2,-8.888506E-2,6.969861E-1,-4.7877058E-1,1.1386492E0,1.2192176E-2,1.0375298E0,-7.748351E-2,1.9458723E-1,-6.62743E-1,2.9443493E-2,1.16051696E-1,1.1414754E-2,1.126655E-1,-3.8177735E-1,9.259829E-1,-9.273101E-1,-2.2221915E-1,6.0290545E-2,-8.723307E-2,1.13056116E-1,-4.1323677E-2,6.772282E-2,-9.8839775E-2,-9.147022E-2,2.0825433E-2],"categories":[],"categories_nodes":[],"categories_segments":[],"categories_sizes":[],"default_left":[1,1,0,1,1,0,1,1,0,0,0,1,0,0,0,0,0,1,0,0,0,0,0,0,1,0,0,0,0,0,0,0,0,0,0],"id":17,"left_children":[1,3,5,7,9,-1,11,13,-1,-1,-1,15,17,19,-1,21,-1,23,25,-1,-1,-1,-1,27,29,31,33,-1,-1,-1,-1,-1,-1,-1,-1],"loss_changes":[2.7198048E1,1.0583025E1,2.2945545E1,2.640236E0,4.5603995E0,0E0,1.5370099E1,8.29937E-1,0E0,0E0,0E0,7.1507697E0,1.2180752E1,1.6202927E-1,0E0,7.5287247E-1,0E0,9.479888E0,8.725838E0,0E0,0E0,0E0,0E0,6.7166004E0,3.1613102E0,5.3316536E0,9.154593E0,0E0,0E0,0E0,0E0,0E0,0E0,0E0,0E0],"parents":[2147483647,0,0,1,1,2,2,3,3,4,4,6,6,7,7,11,11,12,12,13,13,15,15,17,17,18,18,23,23,24,24,25,25,26,26],"right_children":[2,4,6,8,10,-1,12,14,-1,-1,-1,16,18,20,-1,22,-1,24,26,-1,-1,-1,-1,28,30,32,34,-1,-1,-1,-1,-1,-1,-1,-1],"split_conditions":[5.6075067E-3,6.753846E-3,8.600558E-3,1.4411898E-2,4.976908E-3,1.0841689E-1,3.3402434E-3,1.3650141E-2,-2.0782353E-2,7.4646406E-2,-8.888506E-2,6.5554627E-3,2.9099707E-2,2.5571741E-2,1.2192176E-2,9.963587E-3,-7.748351E-2,1.1898992E-2,2.237102E-2,2.9443493E-2,1.16051696E-1,1.1414754E-2,1.126655E-1,9.235127E-3,8.397107E-3,6.4176605E-3,1.1231568E-2,6.0290545E-2,-8.723307E-2,1.13056116E-1,-4.1323677E-2,6.772282E-2,-9.8839775E-2,-9.147022E-2,2.0825433E-2],"split_indices":[1154,3449,4576,4244,1080,0,581,2146,0,0,0,4332,4298,887,0,131,0,4608,3204,0,0,0,0,4873,3901,1790,163,0,0,0,0,0,0,0,0],"split_type":[0,0,0,0,0,0,0,0,0,0,0,0,0,0,0,0,0,0,0,0,0,0,0,0,0,0,0,0,0,0,0,0,0,0,0],"sum_hessian":[1.5397835E2,3.4508724E1,1.1946963E2,2.8692015E1,5.8167114E0,1.1520214E1,1.0794941E2,2.7376064E1,1.3159497E0,1.6543448E0,4.162367E0,1.1662824E1,9.628659E1,2.6285816E1,1.0902491E0,9.711003E0,1.9518204E0,2.0649523E1,7.563706E1,1.0289029E0,2.5256912E1,1.0555642E0,8.655439E0,1.1816072E1,8.83345E0,4.6565826E1,2.9071241E1,3.852984E0,7.9630885E0,7.7980347E0,1.0354155E0,1.3379073E0,4.5227917E1,1.0712943E1,1.8358297E1],"tree_param":{"num_deleted":"0","num_feature":"5020","num_nodes":"35","size_leaf_vector":"1"}},{"base_weights":[4.80742E-2,2.6491946E-1,-5.945598E-1,4.1915196E-1,-7.244361E-1,9.01792E-2,-7.5850713E-1,6.111739E-1,-3.2157525E-1,-1.0210085E0,4.184714E-1,-9.327201E-1,4.381064E-1,8.570115E-1,-1.0324764E-1,-7.128305E-1,5.626874E-1,-1.8819524E-2,-1.076589E-1,-5.686905E-2,9.546952E-2,6.759377E-2,-1.0255786E0,8.9067824E-2,-5.0927322E-2,9.631471E-1,-1.2374167E-2,4.127951E-1,-7.632885E-1,5.531626E-2,-9.3663156E-1,-6.1964493E-2,1.1019713E-1,-1.0899898E0,2.4460096E-2,1.0387596E-1,-1.7869115E-2,8.231146E-2,-7.2278045E-2,-5.741359E-2,7.9020336E-2,-1.0190381E-1,5.93857E-2,-1.0629858E-1,2.7962087E-2,-1.11431316E-1,-2.1580543E-2],"categories":[],"categories_nodes":[],"categories_segments":[],"categories_sizes":[],"default_left":[1,1,0,1,1,0,1,1,0,0,0,0,1,1,0,0,0,0,0,0,0,0,1,0,0,1,0,0,1,0,0,0,0,1,0,0,0,0,0,0,0,0,0,0,0,0,0],"id":18,"left_children":[1,3,5,7,9,-1,11,13,15,17,19,21,23,25,27,29,31,-1,-1,-1,-1,-1,33,-1,-1,35,37,39,41,-1,43,-1,-1,45,-1,-1,-1,-1,-1,-1,-1,-1,-1,-1,-1,-1,-1],"loss_changes":[2.1021584E1,1.749134E1,1.0026611E1,1.4147215E1,5.7006674E0,0E0,7.67688E0,1.3828915E1,7.613553E0,3.8262272E-1,2.6150963E0,5.2872124E0,2.6451163E0,5.3926163E0,7.4411025E0,4.737872E0,5.116459E0,0E0,0E0,0E0,0E0,0E0,2.6779118E0,0E0,0E0,4.6735344E0,4.9465632E0,5.068846E0,3.9132347E0,0E0,2.299263E0,0E0,0E0,3.5985947E-1,0E0,0E0,0E0,0E0,0E0,0E0,0E0,0E0,0E0,0E0,0E0,0E0,0E0],"parents":[2147483647,0,0,1,1,2,2,3,3,4,4,6,6,7,7,8,8,9,9,10,10,11,11,12,12,13,13,14,14,15,15,16,16,22,22,25,25,26,26,27,27,28,28,30,30,33,33],"right_children":[2,4,6,8,10,-1,12,14,16,18,20,22,24,26,28,30,32,-1,-1,-1,-1,-1,34,-1,-1,36,38,40,42,-1,44,-1,-1,46,-1,-1,-1,-1,-1,-1,-1,-1,-1,-1,-1,-1,-1],"split_conditions":[6.903356E-3,1.082464E-2,1.2927447E-2,1.070133E-2,1.2646862E-2,9.01792E-2,2.0235427E-2,6.6464064E-3,3.5268683E-2,7.321123E-3,1.0434593E-2,5.379475E-3,1.664316E-2,8.665971E-3,2.5168901E-2,8.056603E-3,1.8487033E-2,-1.8819524E-2,-1.076589E-1,-5.686905E-2,9.546952E-2,6.759377E-2,1.7669344E-2,8.9067824E-2,-5.0927322E-2,1.2322294E-2,2.5390754E-2,1.3045165E-2,1.5818572E-2,5.531626E-2,5.389199E-2,-6.1964493E-2,1.1019713E-1,1.8144751E-2,2.4460096E-2,1.0387596E-1,-1.7869115E-2,8.231146E-2,-7.2278045E-2,-5.741359E-2,7.9020336E-2,-1.0190381E-1,5.93857E-2,-1.0629858E-1,2.7962087E-2,-1.11431316E-1,-2.1580543E-2],"split_indices":[4453,812,3019,2540,2282,0,3097,1910,1424,45,464,1311,3168,2090,361,654,407,0,0,0,0,0,1382,0,0,3681,1957,1706,1729,0,232,0,0,3359,0,0,0,0,0,0,0,0,0,0,0,0,0],"split_type":[0,0,0,0,0,0,0,0,0,0,0,0,0,0,0,0,0,0,0,0,0,0,0,0,0,0,0,0,0,0,0,0,0,0,0,0,0,0,0,0,0,0,0,0,0,0,0],"sum_hessian":[1.4872195E2,1.1163911E2,3.7082844E1,9.708127E1,1.4557843E1,3.2173662E0,3.386548E1,7.723437E1,1.98469E1,1.1643211E1,2.9146323E0,2.9754154E1,4.1113243E0,5.7312973E1,1.9921392E1,1.389342E1,5.953481E0,1.0028335E0,1.0640378E1,1.004623E0,1.9100094E0,1.2811215E0,2.8473034E1,2.822731E0,1.2885933E0,5.0981274E1,6.3317003E0,1.1390499E1,8.530893E0,1.8660306E0,1.202739E1,1.8182073E0,4.135274E0,2.7233858E1,1.2391751E0,4.7899635E1,3.0816364E0,2.8367848E0,3.4949157E0,3.0066864E0,8.383812E0,7.3878155E0,1.1430779E0,1.1009635E1,1.0177546E0,2.6229366E1,1.004493E0],"tree_param":{"num_deleted":"0","num_feature":"5020","num_nodes":"47","size_leaf_vector":"1"}},{"base_weights":[-2.5307885E-3,2.4954034E-1,-6.1814815E-1,4.5768833E-1,-4.1779953E-1,2.3698908E-1,-9.036328E-1,6.615827E-1,-5.682126E-1,6.117446E-1,-7.264109E-1,6.926272E-1,-8.4636204E-2,6.508049E-2,-9.946682E-1,7.8932E-1,-5.0230944E-1,4.7416997E-1,-9.151445E-1,1.0180634E-1,-4.9487546E-2,-9.0247524E-1,7.383945E-2,-5.5515725E-2,1.0513464E-1,-1.057472E0,2.1527693E-2,8.938884E-1,-4.9592358E-1,7.532015E-2,-9.255155E-2,8.039487E-2,-2.5517821E-2,-1.07476585E-1,2.5619706E-2,-1.09525524E-1,5.5311915E-2,-1.0943129E-1,-2.5728538E-3,3.2176615E-3,1.03446506E-1,-8.880743E-2,4.977865E-2],"categories":[],"categories_nodes":[],"categories_segments":[],"categories_sizes":[],"default_left":[1,1,0,1,0,1,0,1,0,0,1,1,0,0,1,1,0,1,1,0,0,1,0,0,0,1,0,0,0,0,0,0,0,0,0,0,0,0,0,0,0,0,0],"id":19,"left_children":[1,3,5,7,9,11,13,15,17,19,21,23,-1,-1,25,27,29,31,33,-1,-1,35,-1,-1,-1,37,-1,39,41,-1,-1,-1,-1,-1,-1,-1,-1,-1,-1,-1,-1,-1,-1],"loss_changes":[2.2033968E1,1.4185673E1,1.0284027E1,1.6539394E1,8.221022E0,6.0733466E0,5.0527954E0,1.0048737E1,5.2615385E0,3.285985E0,5.6408014E0,4.332369E0,0E0,0E0,2.4925213E0,8.35804E0,4.4333425E0,1.165375E0,2.2118359E0,0E0,0E0,5.563774E0,0E0,0E0,0E0,1.0552769E0,0E0,6.6070747E0,2.4193697E0,0E0,0E0,0E0,0E0,0E0,0E0,0E0,0E0,0E0,0E0,0E0,0E0,0E0,0E0],"parents":[2147483647,0,0,1,1,2,2,3,3,4,4,5,5,6,6,7,7,8,8,9,9,10,10,11,11,14,14,15,15,16,16,17,17,18,18,21,21,25,25,27,27,28,28],"right_children":[2,4,6,8,10,12,14,16,18,20,22,24,-1,-1,26,28,30,32,34,-1,-1,36,-1,-1,-1,38,-1,40,42,-1,-1,-1,-1,-1,-1,-1,-1,-1,-1,-1,-1,-1,-1],"split_conditions":[7.0198528E-3,6.4880345E-3,1.6803492E-2,1.0167468E-2,1.0907992E-2,1.0736008E-2,1.0484512E-2,1.0475858E-2,8.071611E-3,9.131186E-3,2.0678129E-2,5.0540646E-3,-8.4636204E-2,6.508049E-2,1.5081083E-2,9.240505E-3,1.2353109E-2,9.399291E-3,2.0621255E-2,1.0180634E-1,-4.9487546E-2,1.8215092E-2,7.383945E-2,-5.5515725E-2,1.0513464E-1,1.975572E-2,2.1527693E-2,8.544377E-3,6.1102513E-2,7.532015E-2,-9.255155E-2,8.039487E-2,-2.5517821E-2,-1.07476585E-1,2.5619706E-2,-1.09525524E-1,5.5311915E-2,-1.0943129E-1,-2.5728538E-3,3.2176615E-3,1.03446506E-1,-8.880743E-2,4.977865E-2],"split_indices":[2748,3729,4169,1956,4199,398,4273,1694,4149,2779,2662,2450,0,0,432,4252,3047,1898,621,0,0,3777,0,0,0,593,0,2231,42,0,0,0,0,0,0,0,0,0,0,0,0,0,0],"split_type":[0,0,0,0,0,0,0,0,0,0,0,0,0,0,0,0,0,0,0,0,0,0,0,0,0,0,0,0,0,0,0,0,0,0,0,0,0,0,0,0,0,0,0],"sum_hessian":[1.3999629E2,9.974803E1,4.0248253E1,7.627232E1,2.3475712E1,1.0116198E1,3.0132057E1,6.3922966E1,1.2349357E1,5.187543E0,1.828817E1,7.3750467E0,2.7411504E0,1.3268604E0,2.8805197E1,5.7891228E1,6.0317388E0,2.9922287E0,9.357127E0,3.8528953E0,1.3346474E0,1.6668562E1,1.6196071E0,1.5245115E0,5.8505354E0,2.7503601E1,1.3015947E0,5.381712E1,4.0741057E0,1.324031E0,4.707708E0,1.9901072E0,1.0021216E0,8.307495E0,1.0496321E0,1.493775E1,1.7308129E0,2.6496822E1,1.0067791E0,7.7205176E0,4.6096603E1,2.9974985E0,1.0766071E0],"tree_param":{"num_deleted":"0","num_feature":"5020","num_nodes":"43","size_leaf_vector":"1"}},{"base_weights":[1.0659491E-2,7.338476E-1,-1.702421E-1,9.007947E-1,-5.939471E-1,1.0331851E-1,-3.0001834E-1,-5.696813E-2,9.977098E-1,-7.6463106E-3,-7.610532E-2,-5.3218436E-1,2.6111358E-1,1.0698655E0,-2.6144063E-2,7.3389465E-1,-6.2271035E-1,5.3725684E-1,-5.98438E-1,1.1253556E-1,-5.086729E-4,1.39814865E-5,9.1041274E-2,-8.2739425E-1,5.290456E-2,8.0582815E-1,-4.889029E-1,-9.2288904E-2,3.340129E-2,-9.013789E-2,6.806382E-2,-5.6834616E-2,7.73923E-2,9.800636E-2,-3.4797136E-2,6.590781E-2,-9.178828E-2],"categories":[],"categories_nodes":[],"categories_segments":[],"categories_sizes":[],"default_left":[1,1,0,0,1,0,1,0,1,0,0,0,1,1,0,1,0,1,0,0,0,0,0,0,0,1,0,0,0,0,0,0,0,0,0,0,0],"id":20,"left_children":[1,3,5,7,9,-1,11,-1,13,-1,-1,15,17,19,-1,21,23,25,27,-1,-1,-1,-1,29,31,33,35,-1,-1,-1,-1,-1,-1,-1,-1,-1,-1],"loss_changes":[1.7844978E1,6.5845165E0,1.7357738E1,4.0798054E0,2.574998E-1,0E0,1.307621E1,0E0,2.412941E0,0E0,0E0,8.545561E0,7.3791285E0,1.3420715E0,0E0,6.692791E-1,9.226679E0,6.741257E0,2.6386294E0,0E0,0E0,0E0,0E0,6.3063736E0,7.777013E0,4.086521E0,3.264151E0,0E0,0E0,0E0,0E0,0E0,0E0,0E0,0E0,0E0,0E0],"parents":[2147483647,0,0,1,1,2,2,3,3,4,4,6,6,8,8,11,11,12,12,13,13,15,15,16,16,17,17,18,18,23,23,24,24,25,25,26,26],"right_children":[2,4,6,8,10,-1,12,-1,14,-1,-1,16,18,20,-1,22,24,26,28,-1,-1,-1,-1,30,32,34,36,-1,-1,-1,-1,-1,-1,-1,-1,-1,-1],"split_conditions":[5.6319977E-3,8.092262E-3,7.752897E-3,1.6853843E-2,7.4433316E-3,1.0331851E-1,1.1067801E-2,-5.696813E-2,1.9239776E-2,-7.6463106E-3,-7.610532E-2,8.147596E-3,9.847569E-3,8.925832E-3,-2.6144063E-2,1.186789E-3,4.295261E-2,9.564974E-3,3.4921337E-2,1.1253556E-1,-5.086729E-4,1.39814865E-5,9.1041274E-2,8.916799E-2,3.37757E-2,6.954754E-3,1.2096137E-2,-9.2288904E-2,3.340129E-2,-9.013789E-2,6.806382E-2,-5.6834616E-2,7.73923E-2,9.800636E-2,-3.4797136E-2,6.590781E-2,-9.178828E-2],"split_indices":[576,1499,3965,3231,455,0,4266,0,153,0,0,4813,1226,3711,0,142,4815,3620,3290,0,0,0,0,2782,403,3671,442,0,0,0,0,0,0,0,0,0,0],"split_type":[0,0,0,0,0,0,0,0,0,0,0,0,0,0,0,0,0,0,0,0,0,0,0,0,0,0,0,0,0,0,0,0,0,0,0,0,0],"sum_hessian":[1.3444757E2,2.6290348E1,1.0815722E2,2.3639658E1,2.65069E0,9.85058E0,9.830664E1,1.160064E0,2.2479595E1,1.0028127E0,1.6478775E0,6.957278E1,2.8733868E1,2.1403399E1,1.076195E0,4.168327E0,6.540445E1,2.2031036E1,6.7028294E0,2.030818E1,1.0952188E0,1.002384E0,3.165943E0,5.0024426E1,1.5380023E1,1.7631226E1,4.3998117E0,4.980199E0,1.7226309E0,4.8068447E1,1.9559755E0,8.375334E0,7.0046887E0,1.5448867E1,2.1823583E0,1.050966E0,3.3488457E0],"tree_param":{"num_deleted":"0","num_feature":"5020","num_nodes":"37","size_leaf_vector":"1"}},{"base_weights":[7.899017E-3,2.4120851E-1,-5.821503E-1,5.882826E-1,-1.6454819E-1,2.626877E-1,-7.902109E-1,8.3022314E-1,-1.845834E-1,2.9286733E-1,-6.570531E-1,-5.936201E-1,8.956271E-2,-8.9818496E-1,6.76171E-2,9.162953E-1,-5.9483714E-2,5.912018E-1,-6.890312E-1,6.5189594E-1,-8.332352E-1,5.381497E-1,-8.6766416E-1,-7.839932E-2,-1.3590982E-3,1.01278454E-1,-1.0066426E0,1.0101401E0,-5.9894104E-2,-2.7326202E-2,9.097791E-2,4.984928E-2,-9.570722E-1,8.4319437E-1,-6.2012203E-2,-8.99548E-2,-2.5239741E-2,7.476525E-2,-1.744386E-3,-1.011959E0,3.453856E-2,8.12805E-2,-6.6947564E-2,1.206887E-2,-1.061639E0,1.0553481E-1,-1.9918267E-2,7.2275504E-2,-7.5244114E-2,-1.03744864E-1,-2.3691917E-2,1.008382E-1,-5.366705E-2,-1.074512E-1,-4.308797E-3,-1.0992128E-1,-1.2694313E-2],"categories":[],"categories_nodes":[],"categories_segments":[],"categories_sizes":[],"default_left":[1,1,0,1,1,1,1,1,0,1,0,0,0,1,0,1,0,0,1,1,1,0,1,0,0,1,0,1,1,0,0,0,1,1,0,0,0,0,0,1,0,0,0,0,1,0,0,0,0,0,0,0,0,0,0,0,0],"id":21,"left_children":[1,3,5,7,9,11,13,15,17,19,21,23,-1,25,-1,27,-1,29,31,33,35,37,39,-1,-1,41,43,45,47,-1,-1,-1,49,51,-1,-1,-1,-1,-1,53,-1,-1,-1,-1,55,-1,-1,-1,-1,-1,-1,-1,-1,-1,-1,-1,-1],"loss_changes":[1.7787788E1,1.313375E1,6.644145E0,9.523851E0,9.98314E0,4.86024E0,5.2988796E0,5.2487125E0,5.403123E0,9.932934E0,5.812462E0,4.305557E-1,0E0,3.140232E0,0E0,3.4095154E0,0E0,1.7820959E0,3.0863824E0,4.9445453E0,6.116867E-3,4.5519483E-1,3.5766926E0,0E0,0E0,2.5471635E0,1.7014256E0,2.0365982E0,2.79332E0,0E0,0E0,0E0,1.6114998E-1,4.2381573E0,0E0,0E0,0E0,0E0,0E0,9.677334E-1,0E0,0E0,0E0,0E0,7.1380806E-1,0E0,0E0,0E0,0E0,0E0,0E0,0E0,0E0,0E0,0E0,0E0,0E0],"parents":[2147483647,0,0,1,1,2,2,3,3,4,4,5,5,6,6,7,7,8,8,9,9,10,10,11,11,13,13,15,15,17,17,18,18,19,19,20,20,21,21,22,22,25,25,26,26,27,27,28,28,32,32,33,33,39,39,44,44],"right_children":[2,4,6,8,10,12,14,16,18,20,22,24,-1,26,-1,28,-1,30,32,34,36,38,40,-1,-1,42,44,46,48,-1,-1,-1,50,52,-1,-1,-1,-1,-1,54,-1,-1,-1,-1,56,-1,-1,-1,-1,-1,-1,-1,-1,-1,-1,-1,-1],"split_conditions":[6.8896194E-3,4.9194335E-3,1.8083105E-2,6.7881923E-3,6.466749E-3,6.9692396E-3,2.9187862E-2,1.1615046E-2,2.0347275E-2,1.5210212E-2,1.219416E-2,1.2958645E-2,8.956271E-2,7.3106387E-3,6.76171E-2,1.0092676E-2,-5.9483714E-2,2.0884965E-2,1.3115196E-2,1.899887E-2,2.384883E-2,1.8291919E-2,5.2200895E-2,-7.839932E-2,-1.3590982E-3,9.94533E-3,1.08196745E-2,9.258161E-3,7.294134E-3,-2.7326202E-2,9.097791E-2,4.984928E-2,3.136163E-2,1.4093698E-2,-6.2012203E-2,-8.99548E-2,-2.5239741E-2,7.476525E-2,-1.744386E-3,2.0461772E-2,3.453856E-2,8.12805E-2,-6.6947564E-2,1.206887E-2,1.9692108E-2,1.0553481E-1,-1.9918267E-2,7.2275504E-2,-7.5244114E-2,-1.03744864E-1,-2.3691917E-2,1.008382E-1,-5.366705E-2,-1.074512E-1,-4.308797E-3,-1.0992128E-1,-1.2694313E-2],"split_indices":[4604,1106,663,1267,2911,1457,4388,921,1237,1229,3004,3753,0,640,0,4722,0,3624,3063,93,900,1014,4815,0,0,1785,2170,1870,2512,0,0,0,3080,9,0,0,0,0,0,2320,0,0,0,0,3264,0,0,0,0,0,0,0,0,0,0,0,0],"split_type":[0,0,0,0,0,0,0,0,0,0,0,0,0,0,0,0,0,0,0,0,0,0,0,0,0,0,0,0,0,0,0,0,0,0,0,0,0,0,0,0,0,0,0,0,0,0,0,0,0,0,0,0,0,0,0,0,0],"sum_hessian":[1.271915E2,9.157381E1,3.5617695E1,4.9113503E1,4.24603E1,6.986439E0,2.8631258E1,3.734781E1,1.1765695E1,2.2224539E1,2.023576E1,2.9956822E0,3.990757E0,2.7028547E1,1.6027105E0,3.5557205E1,1.7906052E0,4.56825E0,7.1974444E0,1.7171087E1,5.0534515E0,2.798618E0,1.7437141E1,1.990673E0,1.0050093E0,2.6523826E0,2.4376163E1,3.2407017E1,3.1501863E0,1.2684733E0,3.2997768E0,1.1670786E0,6.030366E0,1.5219372E1,1.9517161E0,4.043148E0,1.0103037E0,1.7812597E0,1.0173583E0,1.5731608E1,1.7055343E0,1.3508129E0,1.3015697E0,1.078303E0,2.3297861E1,3.136194E1,1.0450767E0,1.4584123E0,1.691774E0,5.0285354E0,1.0018308E0,1.3832643E1,1.386729E0,1.4675107E1,1.0565012E0,2.2228292E1,1.0695679E0],"tree_param":{"num_deleted":"0","num_feature":"5020","num_nodes":"57","size_leaf_vector":"1"}},{"base_weights":[1.5397242E-2,3.8638783E-1,-2.9352683E-1,6.187107E-1,-3.9131856E-1,-4.9067974E-1,5.733022E-1,7.680145E-1,-4.9429324E-1,6.6093403E-1,-7.919159E-1,9.2520915E-2,-6.304637E-1,8.629798E-1,-7.1677834E-2,8.87944E-1,-2.0834662E-1,-8.901721E-2,3.693759E-2,-1.8754248E-2,1.0095014E-1,2.0268407E-2,-1.01383224E-1,-5.4423645E-2,-8.6431926E-1,-2.3612618E-2,1.0116281E-1,1.0118163E0,-1.854924E-1,6.166448E-2,-7.489965E-2,6.077923E-1,-6.8075687E-1,5.597443E-2,-9.6149033E-1,1.0676514E-1,-2.8671866E-2,-7.9463296E-2,7.94672E-2,8.800373E-2,-6.0441997E-2,-8.7388866E-2,3.5196867E-2,4.77946E-3,-1.01323985E-1],"categories":[],"categories_nodes":[],"categories_segments":[],"categories_sizes":[],"default_left":[1,1,0,1,1,0,1,1,0,0,0,0,0,0,0,1,0,0,0,0,0,0,0,0,1,0,0,1,1,0,0,0,1,0,0,0,0,0,0,0,0,0,0,0,0],"id":22,"left_children":[1,3,5,7,9,11,13,15,17,19,21,-1,23,25,-1,27,29,-1,-1,-1,-1,-1,-1,31,33,-1,-1,35,37,-1,-1,39,41,-1,43,-1,-1,-1,-1,-1,-1,-1,-1,-1,-1],"loss_changes":[1.3509181E1,9.915402E0,1.1277716E1,7.294401E0,5.972638E0,1.1065234E1,5.2465987E0,4.526993E0,2.2196069E0,1.4047273E0,2.3724408E0,0E0,6.5263844E0,1.9653077E0,0E0,4.604204E0,2.6324623E0,0E0,0E0,0E0,0E0,0E0,0E0,6.70046E0,5.331539E0,0E0,0E0,2.476387E0,3.187732E0,0E0,0E0,3.1376896E0,1.9553173E0,0E0,1.7613068E0,0E0,0E0,0E0,0E0,0E0,0E0,0E0,0E0,0E0,0E0],"parents":[2147483647,0,0,1,1,2,2,3,3,4,4,5,5,6,6,7,7,8,8,9,9,10,10,12,12,13,13,15,15,16,16,23,23,24,24,27,27,28,28,31,31,32,32,34,34],"right_children":[2,4,6,8,10,12,14,16,18,20,22,-1,24,26,-1,28,30,-1,-1,-1,-1,-1,-1,32,34,-1,-1,36,38,-1,-1,40,42,-1,44,-1,-1,-1,-1,-1,-1,-1,-1,-1,-1],"split_conditions":[5.0853575E-3,1.0314593E-2,4.9175043E-2,1.1221258E-2,6.060579E-3,9.2182355E-3,1.5418523E-2,1.6328523E-2,4.4984147E-2,2.1996804E-2,3.947167E-2,9.2520915E-2,1.4775746E-2,1.3571575E-2,-7.1677834E-2,1.1784498E-2,1.1309692E-2,-8.901721E-2,3.693759E-2,-1.8754248E-2,1.0095014E-1,2.0268407E-2,-1.01383224E-1,1.6954718E-2,1.2037215E-2,-2.3612618E-2,1.0116281E-1,2.1208256E-2,1.2680311E-2,6.166448E-2,-7.489965E-2,3.7282515E-2,2.4889747E-2,5.597443E-2,1.2439318E-2,1.0676514E-1,-2.8671866E-2,-7.9463296E-2,7.94672E-2,8.800373E-2,-6.0441997E-2,-8.7388866E-2,3.5196867E-2,4.77946E-3,-1.01323985E-1],"split_indices":[3125,2645,106,2489,4442,3540,278,131,681,2698,361,0,2089,3239,0,155,2474,0,0,0,0,0,0,2778,3347,0,0,4228,4696,0,0,2438,3208,0,2224,0,0,0,0,0,0,0,0,0,0],"split_type":[0,0,0,0,0,0,0,0,0,0,0,0,0,0,0,0,0,0,0,0,0,0,0,0,0,0,0,0,0,0,0,0,0,0,0,0,0,0,0,0,0,0,0,0,0],"sum_hessian":[1.1588343E2,5.2538532E1,6.33449E1,4.0611244E1,1.1927286E1,5.1960793E1,1.1384106E1,3.6081112E1,4.530134E0,3.1095452E0,8.817741E0,4.1640253E0,4.779677E1,9.566979E0,1.8171265E0,3.2214645E1,3.866467E0,3.0852609E0,1.4448733E0,1.0399876E0,2.0695577E0,1.6243374E0,7.1934037E0,1.4157157E1,3.363961E1,1.0696317E0,8.497348E0,2.8933216E1,3.2814271E0,1.4750652E0,2.391402E0,6.8958473E0,7.261309E0,1.8447016E0,3.179491E1,2.7910892E1,1.0223241E0,2.1404765E0,1.1409508E0,5.8549385E0,1.040909E0,6.2468743E0,1.0144352E0,1.5544505E0,3.024046E1],"tree_param":{"num_deleted":"0","num_feature":"5020","num_nodes":"45","size_leaf_vector":"1"}},{"base_weights":[1.897602E-2,9.72228E-1,-1.2240407E-1,1.07676886E-1,-2.3280881E-2,9.6603566E-1,-2.500141E-1,1.0070318E-1,2.8480684E-2,-1.0688642E-1,-8.6764306E-1,3.956147E-1,-3.251433E-1,3.2242697E-2,-9.7931033E-1,7.420134E-1,-5.710541E-1,-6.978444E-1,9.2902154E-2,-1.03115775E-1,-1.193229E-2,-6.590125E-2,9.100136E-2,4.3420516E-2,-8.4231466E-2,3.8079076E-2,-8.432902E-2,4.9382787E-2,-4.5835666E-2],"categories":[],"categories_nodes":[],"categories_segments":[],"categories_sizes":[],"default_left":[1,1,0,0,0,1,1,0,0,1,0,1,0,0,1,0,1,0,1,0,0,0,0,0,0,0,0,0,0],"id":23,"left_children":[1,3,5,-1,-1,7,9,-1,-1,11,13,15,17,-1,19,21,23,25,27,-1,-1,-1,-1,-1,-1,-1,-1,-1,-1],"loss_changes":[1.5430021E1,2.1132479E0,1.4106472E1,0E0,0E0,1.1480331E-2,7.8757815E0,0E0,0E0,8.279978E0,2.5508194E0,8.111063E0,8.223745E0,0E0,5.7358456E-1,4.680106E0,2.1713214E0,4.682747E0,5.8763485E0,0E0,0E0,0E0,0E0,0E0,0E0,0E0,0E0,0E0,0E0],"parents":[2147483647,0,0,1,1,2,2,5,5,6,6,9,9,10,10,11,11,12,12,14,14,15,15,16,16,17,17,18,18],"right_children":[2,4,6,-1,-1,8,10,-1,-1,12,14,16,18,-1,20,22,24,26,28,-1,-1,-1,-1,-1,-1,-1,-1,-1,-1],"split_conditions":[5.009981E-3,9.7992625E-3,7.298088E-3,1.07676886E-1,-2.3280881E-2,1.0901829E-2,1.0106921E-2,1.0070318E-1,2.8480684E-2,3.9930143E-3,1.42187085E-2,7.027465E-3,1.8248215E-2,3.2242697E-2,1.6800174E-2,6.9849365E-3,5.265679E-3,1.7363172E-2,8.955841E-3,-1.03115775E-1,-1.193229E-2,-6.590125E-2,9.100136E-2,4.3420516E-2,-8.4231466E-2,3.8079076E-2,-8.432902E-2,4.9382787E-2,-4.5835666E-2],"split_indices":[1863,155,4070,0,0,4929,4453,0,0,1675,564,4315,2290,0,1007,1598,2505,1872,1889,0,0,0,0,0,0,0,0,0,0],"split_type":[0,0,0,0,0,0,0,0,0,0,0,0,0,0,0,0,0,0,0,0,0,0,0,0,0,0,0,0,0],"sum_hessian":[1.1260778E2,1.3785135E1,9.882265E1,1.2782642E1,1.0024927E0,9.6808E0,8.9141846E1,8.680173E0,1.0006279E0,7.332319E1,1.5818659E1,2.1957346E1,5.1365845E1,1.1950699E0,1.46235895E1,1.6335897E1,5.621448E0,2.6801834E1,2.4564009E1,1.3604363E1,1.0192262E0,1.4361912E0,1.4899707E1,1.0669105E0,4.5545373E0,2.9923415E0,2.3809494E1,1.428143E1,1.0282578E1],"tree_param":{"num_deleted":"0","num_feature":"5020","num_nodes":"29","size_leaf_vector":"1"}},{"base_weights":[-1.0590995E-2,2.2301945E-1,-5.9233093E-1,4.5517096E-1,-5.055352E-1,-7.809191E-1,2.0092367E-1,6.6206294E-1,-3.665335E-1,-8.617246E-1,4.3790966E-1,6.841694E-2,-9.0995795E-1,7.7710795E-1,-7.394072E-2,8.124588E-1,-1.9749127E-1,-8.074444E-1,7.113945E-1,1.7103566E-2,-9.6787083E-1,-4.5087922E-2,8.296189E-2,-9.8925805E-1,2.0843683E-2,9.9775515E-2,-2.7272746E-4,8.7364054E-1,-5.3922147E-2,-7.4052453E-1,7.4341014E-2,-9.670844E-2,2.2425117E-2,1.8722082E-2,8.183835E-2,-1.0140657E-1,-2.0754669E-2,6.170014E-3,-1.0424211E0,9.3184516E-2,-5.17393E-2,-8.736921E-2,-7.307373E-3,-1.6928688E-2,-1.0784041E-1],"categories":[],"categories_nodes":[],"categories_segments":[],"categories_sizes":[],"default_left":[1,1,0,1,1,0,1,1,1,0,0,0,1,0,0,1,1,1,0,0,1,0,0,0,0,0,0,1,0,1,0,0,0,0,0,0,0,0,0,0,0,0,0,0,0],"id":24,"left_children":[1,3,5,7,9,11,13,15,17,19,21,-1,23,25,-1,27,29,31,33,-1,35,-1,-1,37,-1,-1,-1,39,-1,41,-1,-1,-1,-1,-1,-1,-1,-1,43,-1,-1,-1,-1,-1,-1],"loss_changes":[1.4631982E1,1.3228401E1,4.7710047E0,1.0240072E1,6.7772417E0,5.3722706E0,4.2153025E0,6.279579E0,6.502017E0,1.7180414E0,2.4220724E0,0E0,2.2920837E0,8.0354905E-1,0E0,3.8188343E0,4.5630703E0,1.751852E0,7.964015E-2,0E0,2.4586487E-1,0E0,0E0,1.3011017E0,0E0,0E0,0E0,3.6486702E0,0E0,4.2326975E-1,0E0,0E0,0E0,0E0,0E0,0E0,0E0,0E0,4.8117828E-1,0E0,0E0,0E0,0E0,0E0,0E0],"parents":[2147483647,0,0,1,1,2,2,3,3,4,4,5,5,6,6,7,7,8,8,9,9,10,10,12,12,13,13,15,15,16,16,17,17,18,18,20,20,23,23,27,27,29,29,38,38],"right_children":[2,4,6,8,10,12,14,16,18,20,22,-1,24,26,-1,28,30,32,34,-1,36,-1,-1,38,-1,-1,-1,40,-1,42,-1,-1,-1,-1,-1,-1,-1,-1,44,-1,-1,-1,-1,-1,-1],"split_conditions":[9.271415E-3,8.109498E-3,3.2518074E-2,9.128288E-3,1.1505122E-2,1.0157454E-2,9.783364E-3,8.595768E-3,1.1912311E-2,1.3321215E-2,1.7468698E-2,6.841694E-2,2.1836469E-2,3.1407688E-2,-7.394072E-2,1.6852608E-2,1.3613258E-2,1.3556708E-2,1.1533947E-2,1.7103566E-2,1.5480148E-2,-4.5087922E-2,8.296189E-2,6.760237E-3,2.0843683E-2,9.9775515E-2,-2.7272746E-4,1.3436325E-2,-5.3922147E-2,1.1340718E-2,7.4341014E-2,-9.670844E-2,2.2425117E-2,1.8722082E-2,8.183835E-2,-1.0140657E-1,-2.0754669E-2,6.170014E-3,8.251794E-3,9.3184516E-2,-5.17393E-2,-8.736921E-2,-7.307373E-3,-1.6928688E-2,-1.0784041E-1],"split_indices":[2540,3360,3508,345,2411,3076,2956,666,4608,1078,3332,0,2756,4694,0,4044,1972,3527,2365,0,209,0,0,3729,0,0,0,3886,0,4198,0,0,0,0,0,0,0,0,2496,0,0,0,0,0,0],"split_type":[0,0,0,0,0,0,0,0,0,0,0,0,0,0,0,0,0,0,0,0,0,0,0,0,0,0,0,0,0,0,0,0,0,0,0,0,0,0,0,0,0,0,0,0,0],"sum_hessian":[1.056948E2,7.585157E1,2.9843231E1,5.7806854E1,1.804472E1,2.4123634E1,5.719597E0,4.6334778E1,1.1472074E1,1.3162102E1,4.882618E0,1.6044865E0,2.2519148E1,3.6541252E0,2.0654716E0,3.9481506E1,6.8532724E0,8.319877E0,3.152197E0,1.1697345E0,1.1992367E1,1.4474027E0,3.4352152E0,2.1135963E1,1.3831859E0,2.6304266E0,1.0236986E0,3.8110172E1,1.3713355E0,4.4804063E0,2.372866E0,7.2592406E0,1.0606364E0,1.0004711E0,2.1517258E0,1.099087E1,1.0014969E0,1.0099566E0,2.0126007E1,3.689643E1,1.2137398E0,3.4775739E0,1.0028324E0,1.022381E0,1.9103624E1],"tree_param":{"num_deleted":"0","num_feature":"5020","num_nodes":"45","size_leaf_vector":"1"}},{"base_weights":[1.4926562E-2,2.1989796E-1,-5.097272E-1,4.2613915E-1,-4.171632E-1,1.6455045E-1,-8.0782914E-1,6.16914E-1,-3.4781796E-1,-8.772527E-1,1.616942E-1,5.8237153E-1,-7.206499E-2,-9.481776E-1,3.5633873E-2,7.638375E-1,-1.4634989E-1,6.0288984E-1,-7.6707035E-1,1.3119991E-2,-9.953808E-2,-5.772912E-1,6.3100123E-1,-4.5691617E-2,9.3825154E-2,-1.0165998E0,5.005735E-3,-2.4459305E-1,8.668692E-1,4.9656662E-1,-7.9932444E-2,9.271682E-2,-2.2056777E-2,-9.436857E-2,2.9739698E-2,-7.6601736E-2,3.006491E-4,9.3093924E-2,-4.318517E-2,-2.8604427E-2,-1.0452914E-1,5.897106E-2,-7.485728E-2,-2.8008783E-2,9.6237436E-2,-3.705232E-2,8.393189E-2],"categories":[],"categories_nodes":[],"categories_segments":[],"categories_sizes":[],"default_left":[1,1,0,1,0,0,1,1,0,0,0,1,0,1,0,0,1,1,1,0,0,1,1,0,0,0,0,0,0,0,0,0,0,0,0,0,0,0,0,0,0,0,0,0,0,0,0],"id":25,"left_children":[1,3,5,7,9,11,13,15,17,19,21,23,-1,25,-1,27,29,31,33,-1,-1,35,37,-1,-1,39,-1,41,43,45,-1,-1,-1,-1,-1,-1,-1,-1,-1,-1,-1,-1,-1,-1,-1,-1,-1],"loss_changes":[1.1243067E1,1.0048614E1,6.0382366E0,8.667409E0,5.1697483E0,4.058146E0,3.69415E0,5.302616E0,5.2296777E0,1.4021587E0,3.5565522E0,3.105069E0,0E0,1.321619E0,0E0,4.2617664E0,3.885991E0,1.3314123E0,1.9238081E0,0E0,0E0,4.510355E-1,2.3489745E0,0E0,0E0,6.694031E-2,0E0,2.288611E0,4.167433E0,1.7389071E0,0E0,0E0,0E0,0E0,0E0,0E0,0E0,0E0,0E0,0E0,0E0,0E0,0E0,0E0,0E0,0E0,0E0],"parents":[2147483647,0,0,1,1,2,2,3,3,4,4,5,5,6,6,7,7,8,8,9,9,10,10,11,11,13,13,15,15,16,16,17,17,18,18,21,21,22,22,25,25,27,27,28,28,29,29],"right_children":[2,4,6,8,10,12,14,16,18,20,22,24,-1,26,-1,28,30,32,34,-1,-1,36,38,-1,-1,40,-1,42,44,46,-1,-1,-1,-1,-1,-1,-1,-1,-1,-1,-1,-1,-1,-1,-1,-1,-1],"split_conditions":[6.8896194E-3,8.121227E-3,1.4236089E-2,6.6494383E-3,1.8026795E-2,1.7622583E-2,1.653698E-2,8.324824E-3,2.0764882E-2,9.849064E-3,1.9556606E-2,6.837455E-3,-7.206499E-2,1.7075786E-2,3.5633873E-2,8.120581E-3,7.863344E-3,1.561588E-2,2.3651263E-2,1.3119991E-2,-9.953808E-2,8.916791E-3,1.0223687E-2,-4.5691617E-2,9.3825154E-2,7.987148E-3,5.005735E-3,5.9679477E-3,7.6094745E-3,1.4959873E-2,-7.9932444E-2,9.271682E-2,-2.2056777E-2,-9.436857E-2,2.9739698E-2,-7.6601736E-2,3.006491E-4,9.3093924E-2,-4.318517E-2,-2.8604427E-2,-1.0452914E-1,5.897106E-2,-7.485728E-2,-2.8008783E-2,9.6237436E-2,-3.705232E-2,8.393189E-2],"split_indices":[4604,3283,2408,3463,435,4744,3517,134,3918,1825,4925,1430,0,1491,0,1637,4443,1265,4585,0,0,1026,1567,0,0,2269,0,2306,596,211,0,0,0,0,0,0,0,0,0,0,0,0,0,0,0,0,0],"split_type":[0,0,0,0,0,0,0,0,0,0,0,0,0,0,0,0,0,0,0,0,0,0,0,0,0,0,0,0,0,0,0,0,0,0,0,0,0,0,0,0,0,0,0,0,0,0,0],"sum_hessian":[1.02506424E2,7.41273E1,2.8379133E1,5.6248558E1,1.7878735E1,8.8375225E0,1.954161E1,4.5288246E1,1.0960314E1,9.6740675E0,8.204668E0,6.236127E0,2.6013956E0,1.7604767E1,1.9368432E0,3.797713E1,7.3111153E0,3.2201667E0,7.740147E0,1.0027751E0,8.671292E0,3.0973663E0,5.1073017E0,1.5182955E0,4.717831E0,1.6458267E1,1.1465005E0,3.3930845E0,3.4584045E1,3.8046253E0,3.5064898E0,2.2199879E0,1.0001787E0,6.735986E0,1.004161E0,2.0957413E0,1.0016251E0,4.0800276E0,1.0272743E0,1.0364866E0,1.5421781E1,1.2137301E0,2.1793544E0,2.5098317E0,3.2074215E1,1.0549089E0,2.7497165E0],"tree_param":{"num_deleted":"0","num_feature":"5020","num_nodes":"47","size_leaf_vector":"1"}},{"base_weights":[3.188852E-2,2.0251606E-1,-5.8877945E-1,7.4408233E-1,1.545355E-2,-7.9603565E-1,5.4758877E-1,8.8650775E-1,-3.77879E-2,4.2359E-1,-3.3063337E-1,2.4604723E-1,-9.740513E-1,8.062752E-2,-8.2166325E-3,-2.4061752E-2,1.0135341E0,5.5989224E-1,-7.381553E-2,2.4459802E-1,-7.2968453E-1,-3.1593554E-2,7.706851E-2,-1.0184457E-1,-1.6577197E-2,1.047096E-1,2.6904939E-2,7.4392235E-1,-3.3747473E-1,-6.050285E-1,6.789257E-1,-9.284798E-1,2.7681074E-1,8.785547E-2,-3.9641246E-2,6.894611E-2,-8.021537E-2,1.6750181E-2,-8.3114065E-2,9.285521E-2,-5.3626288E-2,-9.984547E-2,3.4430572E-3,-5.705559E-2,7.85945E-2],"categories":[],"categories_nodes":[],"categories_segments":[],"categories_sizes":[],"default_left":[1,1,0,1,0,0,1,0,0,1,1,1,1,0,0,0,1,1,0,0,1,0,0,0,0,0,0,1,0,0,1,0,1,0,0,0,0,0,0,0,0,0,0,0,0],"id":26,"left_children":[1,3,5,7,9,11,13,15,-1,17,19,21,23,-1,-1,-1,25,27,-1,29,31,-1,-1,-1,-1,-1,-1,33,35,37,39,41,43,-1,-1,-1,-1,-1,-1,-1,-1,-1,-1,-1,-1],"loss_changes":[1.0282095E1,7.6893477E0,5.3697176E0,3.4501038E0,8.264906E0,3.6019487E0,6.8918383E-1,2.7633553E0,0E0,4.662202E0,7.4523864E0,1.2585535E0,3.9389133E-1,0E0,0E0,0E0,1.18234634E-1,4.31088E0,0E0,5.476595E0,4.0506964E0,0E0,0E0,0E0,0E0,0E0,0E0,3.5281324E0,2.8777337E0,1.0427538E0,3.3964977E0,1.1166735E0,2.1299198E0,0E0,0E0,0E0,0E0,0E0,0E0,0E0,0E0,0E0,0E0,0E0,0E0],"parents":[2147483647,0,0,1,1,2,2,3,3,4,4,5,5,6,6,7,7,9,9,10,10,11,11,12,12,16,16,17,17,19,19,20,20,27,27,28,28,29,29,30,30,31,31,32,32],"right_children":[2,4,6,8,10,12,14,16,-1,18,20,22,24,-1,-1,-1,26,28,-1,30,32,-1,-1,-1,-1,-1,-1,34,36,38,40,42,44,-1,-1,-1,-1,-1,-1,-1,-1,-1,-1,-1,-1],"split_conditions":[8.1597585E-3,4.813871E-3,3.8391646E-2,2.8145773E-2,1.9235391E-2,1.0807244E-2,1.1154312E-2,9.019724E-3,-3.77879E-2,1.635418E-2,5.0280336E-3,7.722759E-3,1.6131809E-2,8.062752E-2,-8.2166325E-3,-2.4061752E-2,2.6324134E-2,9.303123E-3,-7.381553E-2,1.2352802E-2,1.9428186E-2,-3.1593554E-2,7.706851E-2,-1.0184457E-1,-1.6577197E-2,1.047096E-1,2.6904939E-2,8.611102E-3,8.938993E-3,1.2062432E-2,1.0740645E-2,4.958713E-2,1.6089518E-2,8.785547E-2,-3.9641246E-2,6.894611E-2,-8.021537E-2,1.6750181E-2,-8.3114065E-2,9.285521E-2,-5.3626288E-2,-9.984547E-2,3.4430572E-3,-5.705559E-2,7.85945E-2],"split_indices":[3177,765,3383,795,1965,2580,47,4256,0,4939,3638,658,2453,0,0,0,1688,225,0,3791,2549,0,0,0,0,0,0,3934,4942,3730,4487,4796,736,0,0,0,0,0,0,0,0,0,0,0,0],"split_type":[0,0,0,0,0,0,0,0,0,0,0,0,0,0,0,0,0,0,0,0,0,0,0,0,0,0,0,0,0,0,0,0,0,0,0,0,0,0,0,0,0,0,0,0,0],"sum_hessian":[9.4963806E1,7.501514E1,1.9948666E1,1.849433E1,5.652081E1,1.7124846E1,2.8238196E0,1.6597277E1,1.8970536E0,2.5832678E1,3.0688131E1,2.4428012E0,1.4682044E1,1.8029262E0,1.0208935E0,1.590477E0,1.5006799E1,2.3583763E1,2.2489152E0,1.2727917E1,1.7960215E1,1.3714892E0,1.0713121E0,1.36711445E1,1.0108998E0,1.3970525E1,1.0362737E0,1.9712217E1,3.871546E0,4.1725674E0,8.555349E0,1.5062664E1,2.8975503E0,1.7835995E1,1.8762224E0,1.0553958E0,2.8161502E0,1.0034404E0,3.169127E0,7.293071E0,1.2622787E0,1.40078E1,1.0548636E0,1.0422555E0,1.855295E0],"tree_param":{"num_deleted":"0","num_feature":"5020","num_nodes":"45","size_leaf_vector":"1"}},{"base_weights":[1.2412013E-2,2.3381525E-1,-5.088372E-1,4.193147E-1,-4.1992515E-1,4.429708E-1,-6.913349E-1,1.043633E-1,8.610207E-1,3.503002E-1,-7.385455E-1,8.537393E-2,-4.681134E-2,-8.047751E-1,7.0182495E-2,4.34272E-1,-4.970871E-1,9.5934176E-1,-3.5129175E-2,-5.9165176E-2,7.713749E-2,-8.646157E-1,2.5209123E-2,-8.9374405E-1,5.315719E-2,6.064589E-1,-6.6194475E-2,-9.618857E-2,3.8933375E-1,1.032022E0,-1.1263016E-2,5.6613884E-3,-9.748512E-2,-9.833354E-1,-3.1075752E-4,9.400031E-2,-1.2987305E-2,-5.4413237E-2,8.3248876E-2,1.0806882E-1,1.4694042E-2,-1.5886841E-2,-1.0208132E-1],"categories":[],"categories_nodes":[],"categories_segments":[],"categories_sizes":[],"default_left":[1,1,0,0,1,0,1,0,1,0,1,0,0,1,0,1,0,1,0,0,0,0,0,1,0,0,0,0,0,1,0,0,0,1,0,0,0,0,0,0,0,0,0],"id":27,"left_children":[1,3,5,7,9,11,13,15,17,19,21,-1,-1,23,-1,25,27,29,-1,-1,-1,31,-1,33,-1,35,-1,-1,37,39,-1,-1,-1,41,-1,-1,-1,-1,-1,-1,-1,-1,-1],"loss_changes":[1.0768163E1,8.113241E0,5.1394362E0,7.0724783E0,3.931628E0,2.3031101E0,4.31643E0,6.4052196E0,2.8749332E0,2.4624736E0,1.5803442E0,0E0,0E0,3.1402988E0,0E0,4.304347E0,5.118924E0,1.6715641E0,0E0,0E0,0E0,1.0608497E0,0E0,1.703764E0,0E0,4.639169E0,0E0,0E0,2.386059E0,6.507149E-1,0E0,0E0,0E0,4.3826675E-1,0E0,0E0,0E0,0E0,0E0,0E0,0E0,0E0,0E0],"parents":[2147483647,0,0,1,1,2,2,3,3,4,4,5,5,6,6,7,7,8,8,9,9,10,10,13,13,15,15,16,16,17,17,21,21,23,23,25,25,28,28,29,29,33,33],"right_children":[2,4,6,8,10,12,14,16,18,20,22,-1,-1,24,-1,26,28,30,-1,-1,-1,32,-1,34,-1,36,-1,-1,38,40,-1,-1,-1,42,-1,-1,-1,-1,-1,-1,-1,-1,-1],"split_conditions":[7.4110427E-3,9.297928E-3,1.0375311E-2,2.394564E-2,6.5861745E-3,1.3575428E-2,2.62042E-2,3.2508943E-2,1.0638702E-2,1.6776694E-2,1.8170998E-2,8.537393E-2,-4.681134E-2,2.5309762E-2,7.0182495E-2,9.865472E-3,6.881425E-2,1.3579259E-2,-3.5129175E-2,-5.9165176E-2,7.713749E-2,1.260496E-2,2.5209123E-2,1.8123336E-2,5.315719E-2,2.231874E-2,-6.6194475E-2,-9.618857E-2,2.3222586E-2,1.0209172E-2,-1.1263016E-2,5.6613884E-3,-9.748512E-2,4.442324E-3,-3.1075752E-4,9.400031E-2,-1.2987305E-2,-5.4413237E-2,8.3248876E-2,1.0806882E-1,1.4694042E-2,-1.5886841E-2,-1.0208132E-1],"split_indices":[4877,103,3433,3208,4689,188,2585,2616,3872,4674,4360,0,0,4013,0,3898,3633,1679,0,0,0,1067,0,3644,0,3798,0,0,1628,2485,0,0,0,2831,0,0,0,0,0,0,0,0,0],"split_type":[0,0,0,0,0,0,0,0,0,0,0,0,0,0,0,0,0,0,0,0,0,0,0,0,0,0,0,0,0,0,0,0,0,0,0,0,0,0,0,0,0,0,0],"sum_hessian":[9.127566E1,6.445114E1,2.6824514E1,5.048466E1,1.3966479E1,4.0861464E0,2.2738369E1,3.0192587E1,2.0292072E1,4.0578055E0,9.908673E0,2.85975E0,1.2263963E0,2.141681E1,1.3215586E0,1.9677183E1,1.0515406E1,1.8962816E1,1.3292563E0,1.1284169E0,2.9293888E0,8.902888E0,1.0057852E0,2.0390491E1,1.0263189E0,1.7392109E1,2.2850738E0,6.842419E0,3.6729863E0,1.7793665E1,1.169152E0,1.0034621E0,7.899426E0,1.8432262E1,1.9582275E0,1.1779582E1,5.6125264E0,1.1090379E0,2.5639484E0,1.6656788E1,1.1368768E0,1.0292406E0,1.7403023E1],"tree_param":{"num_deleted":"0","num_feature":"5020","num_nodes":"43","size_leaf_vector":"1"}},{"base_weights":[4.063931E-2,2.3008639E-1,-4.972727E-1,4.22429E-1,-3.1238028E-1,4.4774193E-1,-6.942488E-1,6.49371E-1,-2.5754934E-2,3.2589796E-1,-6.872887E-1,8.535164E-2,-3.466823E-2,-8.0370075E-1,6.0229756E-2,8.474511E-1,3.9274152E-2,6.754507E-1,-4.4839913E-1,6.858517E-1,-6.5081134E-2,-8.576785E-1,4.485809E-2,-9.0965986E-1,3.5132293E-2,9.136899E-1,-2.2268277E-2,7.312194E-1,-3.7221628E-1,-2.9653994E-2,9.142308E-2,-7.6993436E-1,2.6470727E-1,8.983122E-2,-8.2649E-3,-9.6240215E-2,4.0383157E-3,-9.782407E-1,7.8115086E-3,9.7521536E-2,-1.5055898E-2,1.9371264E-2,8.678072E-2,5.3222872E-2,-6.636025E-2,-9.451173E-2,1.1941976E-2,-5.1705875E-2,7.355326E-2,-1.6163768E-2,-1.0272111E-1],"categories":[],"categories_nodes":[],"categories_segments":[],"categories_sizes":[],"default_left":[1,1,0,1,0,0,1,1,0,1,1,0,0,1,0,1,1,1,0,1,0,1,0,1,0,1,0,1,0,0,0,1,0,0,0,0,0,0,0,0,0,0,0,0,0,0,0,0,0,0,0],"id":28,"left_children":[1,3,5,7,9,11,13,15,17,19,21,-1,-1,23,-1,25,27,29,31,33,-1,35,-1,37,-1,39,-1,41,43,-1,-1,45,47,-1,-1,-1,-1,49,-1,-1,-1,-1,-1,-1,-1,-1,-1,-1,-1,-1,-1],"loss_changes":[8.751334E0,6.743185E0,4.4788656E0,4.81773E0,4.3304477E0,1.7368593E0,3.16916E0,3.7581234E0,5.2902374E0,2.9172876E0,2.539297E0,0E0,0E0,2.5074148E0,0E0,1.8788376E0,2.7601454E0,1.8325584E0,2.749139E0,9.922633E-1,0E0,9.815717E-1,0E0,1.2045317E0,0E0,1.6170521E0,0E0,9.589374E-2,1.9719079E0,0E0,0E0,1.3447704E0,1.9240223E0,0E0,0E0,0E0,0E0,4.5963192E-1,0E0,0E0,0E0,0E0,0E0,0E0,0E0,0E0,0E0,0E0,0E0,0E0,0E0],"parents":[2147483647,0,0,1,1,2,2,3,3,4,4,5,5,6,6,7,7,8,8,9,9,10,10,13,13,15,15,16,16,17,17,18,18,19,19,21,21,23,23,25,25,27,27,28,28,31,31,32,32,37,37],"right_children":[2,4,6,8,10,12,14,16,18,20,22,-1,-1,24,-1,26,28,30,32,34,-1,36,-1,38,-1,40,-1,42,44,-1,-1,46,48,-1,-1,-1,-1,50,-1,-1,-1,-1,-1,-1,-1,-1,-1,-1,-1,-1,-1],"split_conditions":[6.903356E-3,7.079296E-3,1.03644105E-2,8.119581E-3,4.7397647E-2,2.1292133E-2,2.2040995E-2,7.7523366E-3,3.2051932E-2,1.5092497E-2,1.971179E-2,8.535164E-2,-3.466823E-2,2.512308E-2,6.0229756E-2,2.929668E-2,8.512611E-3,6.4782067E-3,2.381763E-2,6.7932173E-3,-6.5081134E-2,1.5200729E-2,4.485809E-2,1.7925588E-2,3.5132293E-2,1.8697489E-2,-2.2268277E-2,8.70311E-3,2.3885913E-2,-2.9653994E-2,9.142308E-2,2.3246465E-2,1.2035179E-2,8.983122E-2,-8.2649E-3,-9.6240215E-2,4.0383157E-3,2.0664215E-2,7.8115086E-3,9.7521536E-2,-1.5055898E-2,1.9371264E-2,8.678072E-2,5.3222872E-2,-6.636025E-2,-9.451173E-2,1.1941976E-2,-5.1705875E-2,7.355326E-2,-1.6163768E-2,-1.0272111E-1],"split_indices":[4453,3176,4123,2073,1596,2787,1237,372,1901,731,1493,0,0,1109,0,1762,469,1044,3828,2730,0,841,0,935,0,2559,0,1820,2820,0,0,2350,462,0,0,0,0,2625,0,0,0,0,0,0,0,0,0,0,0,0,0],"split_type":[0,0,0,0,0,0,0,0,0,0,0,0,0,0,0,0,0,0,0,0,0,0,0,0,0,0,0,0,0,0,0,0,0,0,0,0,0,0,0,0,0,0,0,0,0,0,0,0,0,0,0],"sum_hessian":[8.37539E1,6.2362667E1,2.139123E1,4.6202065E1,1.6160603E1,3.470076E0,1.7921152E1,3.0373348E1,1.5828714E1,6.0282636E0,1.01323395E1,2.2476447E0,1.2224313E0,1.6876585E1,1.0445675E0,2.2635303E1,7.738045E0,5.72773E0,1.0100985E1,4.6224957E0,1.405768E0,9.023635E0,1.1087046E0,1.5653045E1,1.2235408E0,2.1453568E1,1.181736E0,2.5958943E0,5.142151E0,1.0818795E0,4.64585E0,6.90698E0,3.1940045E0,3.489006E0,1.1334895E0,8.017109E0,1.0065256E0,1.4645842E1,1.0072031E0,2.036018E1,1.0933868E0,1.0159817E0,1.5799128E0,1.0515774E0,4.0905733E0,5.717967E0,1.1890129E0,1.1636554E0,2.0303493E0,1.0719134E0,1.3573928E1],"tree_param":{"num_deleted":"0","num_feature":"5020","num_nodes":"51","size_leaf_vector":"1"}},{"base_weights":[1.2824831E-2,-2.3099409E-1,4.5431128E-1,7.639723E-1,-3.8096514E-1,-4.0124205E-1,6.7041886E-1,8.946771E-2,-3.2930542E-3,-4.6234673E-1,6.8519664E-1,3.7929695E-2,-7.878764E-2,-1.0181607E-1,8.7443167E-1,-7.2128765E-2,-7.182109E-1,1.1571515E-2,8.522327E-2,6.2039044E-2,-5.904239E-1,9.7993815E-1,-1.3279793E-2,4.254705E-1,-4.5456913E-1,-8.307599E-1,3.80341E-1,-7.5751536E-2,-4.0849485E-3,1.0505011E0,-5.473811E-3,7.849369E-2,-5.656472E-2,-7.659193E-2,3.7202705E-2,3.0932426E-2,-9.0657346E-2,-8.270799E-3,6.3187286E-2,1.0919912E-1,2.0895245E-2],"categories":[],"categories_nodes":[],"categories_segments":[],"categories_sizes":[],"default_left":[0,0,0,0,1,0,0,0,0,1,1,0,0,0,1,0,1,0,0,0,0,1,0,0,0,0,1,0,0,1,0,0,0,0,0,0,0,0,0,0,0],"id":29,"left_children":[1,3,5,7,9,11,13,-1,-1,15,17,-1,-1,19,21,23,25,-1,-1,-1,27,29,-1,31,33,35,37,-1,-1,39,-1,-1,-1,-1,-1,-1,-1,-1,-1,-1,-1],"loss_changes":[9.042222E0,8.371193E0,5.792932E0,8.029189E-1,4.4576926E0,2.3058195E0,3.9057674E0,0E0,0E0,4.4348745E0,2.6166165E-1,0E0,0E0,2.4688723E0,2.1777067E0,3.7916272E0,3.6579227E0,0E0,0E0,0E0,3.4246552E-1,1.339571E0,0E0,3.5554736E0,3.1608362E0,2.4267197E0,4.2471772E-1,0E0,0E0,3.475399E-1,0E0,0E0,0E0,0E0,0E0,0E0,0E0,0E0,0E0,0E0,0E0],"parents":[2147483647,0,0,1,1,2,2,3,3,4,4,5,5,6,6,9,9,10,10,13,13,14,14,15,15,16,16,20,20,21,21,23,23,24,24,25,25,26,26,29,29],"right_children":[2,4,6,8,10,12,14,-1,-1,16,18,-1,-1,20,22,24,26,-1,-1,-1,28,30,-1,32,34,36,38,-1,-1,40,-1,-1,-1,-1,-1,-1,-1,-1,-1,-1,-1],"split_conditions":[2.3560135E-2,7.5707664E-3,1.0777884E-2,1.2092426E-2,2.3310324E-2,1.4802472E-2,1.0910847E-2,8.946771E-2,-3.2930542E-3,5.0456333E-3,1.3809183E-2,3.7929695E-2,-7.878764E-2,2.4301805E-2,9.4703445E-3,1.323541E-2,1.686412E-2,1.1571515E-2,8.522327E-2,6.2039044E-2,2.9307501E-2,3.403039E-2,-1.3279793E-2,2.4994843E-2,4.1817136E-2,6.9344556E-3,8.703064E-3,-7.5751536E-2,-4.0849485E-3,2.2377998E-2,-5.473811E-3,7.849369E-2,-5.656472E-2,-7.659193E-2,3.7202705E-2,3.0932426E-2,-9.0657346E-2,-8.270799E-3,6.3187286E-2,1.0919912E-1,2.0895245E-2],"split_indices":[3208,1652,3294,1422,4398,2243,3216,0,0,3125,3204,0,0,739,4345,1485,2440,0,0,0,4980,2390,0,208,4881,58,4102,0,0,602,0,0,0,0,0,0,0,0,0,0,0],"split_type":[0,0,0,0,0,0,0,0,0,0,0,0,0,0,0,0,0,0,0,0,0,0,0,0,0,0,0,0,0,0,0,0,0,0,0,0,0,0,0,0,0],"sum_hessian":[8.202722E1,5.3150608E1,2.8876608E1,6.4257245E0,4.6724884E1,5.6504064E0,2.3226202E1,5.4149013E0,1.0108231E0,4.3937428E1,2.7874587E0,1.878023E0,3.7723832E0,4.9584126E0,1.826779E1,1.790795E1,2.6029478E1,1.0160751E0,1.7713835E0,1.8920625E0,3.06635E0,1.6560217E1,1.7075735E0,7.733393E0,1.0174556E1,2.3831642E1,2.1978345E0,2.0612764E0,1.0050734E0,1.54886265E1,1.0715903E0,5.8277626E0,1.9056305E0,7.4440465E0,2.730509E0,1.2939018E0,2.253774E1,1.0098917E0,1.1879427E0,1.4477271E1,1.0113554E0],"tree_param":{"num_deleted":"0","num_feature":"5020","num_nodes":"41","size_leaf_vector":"1"}},{"base_weights":[3.39658E-2,2.28609E-1,-4.0575236E-1,4.0489894E-1,-3.8221616E-1,5.2112085E-1,-6.3291866E-1,-4.570615E-1,5.200263E-1,2.451841E-1,-8.1227726E-1,8.527854E-2,-4.1219786E-2,-8.3926266E-1,1.3912791E-1,5.850484E-2,-8.6255595E-2,6.5466374E-1,-4.2350557E-1,8.3535835E-2,-4.4790125E-1,-8.644875E-3,-9.0710655E-2,-9.270425E-1,2.1245575E-2,7.5931236E-2,-6.475036E-2,-2.945359E-1,7.466323E-1,-8.579571E-2,5.213624E-2,-5.3721244E-5,-6.361047E-2,-9.844785E-2,-9.110416E-3,3.8190737E-2,-7.173868E-2,8.266288E-2,-2.7885893E-2],"categories":[],"categories_nodes":[],"categories_segments":[],"categories_sizes":[],"default_left":[1,1,0,0,1,1,1,0,1,1,0,0,0,0,1,0,0,0,0,0,1,0,0,1,0,0,0,1,1,0,0,0,0,0,0,0,0,0,0],"id":30,"left_children":[1,3,5,7,9,11,13,15,17,19,21,-1,-1,23,25,-1,-1,27,29,-1,31,-1,-1,33,-1,-1,-1,35,37,-1,-1,-1,-1,-1,-1,-1,-1,-1,-1],"loss_changes":[6.750124E0,6.0295534E0,5.430931E0,4.48726E0,3.6349053E0,1.9975079E0,3.2885103E0,2.861713E0,5.1357336E0,2.8066177E0,4.575405E-1,0E0,0E0,1.6604862E0,2.9586353E0,0E0,0E0,3.1759586E0,2.657072E0,0E0,2.8473443E-1,0E0,0E0,6.2177086E-1,0E0,0E0,0E0,1.3346566E0,2.786251E0,0E0,0E0,0E0,0E0,0E0,0E0,0E0,0E0,0E0,0E0],"parents":[2147483647,0,0,1,1,2,2,3,3,4,4,5,5,6,6,7,7,8,8,9,9,10,10,13,13,14,14,17,17,18,18,20,20,23,23,27,27,28,28],"right_children":[2,4,6,8,10,12,14,16,18,20,22,-1,-1,24,26,-1,-1,28,30,-1,32,-1,-1,34,-1,-1,-1,36,38,-1,-1,-1,-1,-1,-1,-1,-1,-1,-1],"split_conditions":[7.3030842E-3,8.440058E-3,1.759143E-2,8.189224E-3,4.9997E-3,2.2627523E-2,2.0908667E-2,6.404868E-3,3.3596013E-2,7.616524E-3,2.7317436E-2,8.527854E-2,-4.1219786E-2,3.947522E-2,6.248469E-3,5.850484E-2,-8.6255595E-2,8.631614E-3,3.320808E-2,8.3535835E-2,9.053444E-3,-8.644875E-3,-9.0710655E-2,1.55736925E-2,2.1245575E-2,7.5931236E-2,-6.475036E-2,7.817025E-3,1.5135735E-2,-8.579571E-2,5.213624E-2,-5.3721244E-5,-6.361047E-2,-9.844785E-2,-9.110416E-3,3.8190737E-2,-7.173868E-2,8.266288E-2,-2.7885893E-2],"split_indices":[4877,949,4972,2727,3125,4677,3058,4328,720,659,2088,0,0,610,4664,0,0,1125,2954,0,2874,0,0,3264,0,0,0,5013,2964,0,0,0,0,0,0,0,0,0,0],"split_type":[0,0,0,0,0,0,0,0,0,0,0,0,0,0,0,0,0,0,0,0,0,0,0,0,0,0,0,0,0,0,0,0,0,0,0,0,0,0,0],"sum_hessian":[7.678373E1,5.3556713E1,2.3227016E1,4.1823254E1,1.173346E1,4.3173914E0,1.8909624E1,4.577958E0,3.7245296E1,4.946736E0,6.7867246E0,3.2490828E0,1.0683086E0,1.4852857E1,4.0567684E0,1.1583154E0,3.4196427E0,3.286218E1,4.3831167E0,2.5608513E0,2.3858845E0,1.0051184E0,5.781606E0,1.3818098E1,1.0347584E0,2.2877908E0,1.7689774E0,2.7082264E0,3.0153954E1,3.0655534E0,1.3175633E0,1.0034691E0,1.3824153E0,1.2763448E1,1.0546498E0,1.0789828E0,1.6292436E0,2.8151806E1,2.002147E0],"tree_param":{"num_deleted":"0","num_feature":"5020","num_nodes":"39","size_leaf_vector":"1"}},{"base_weights":[2.67562E-2,2.2391929E-1,-4.7538143E-1,4.262979E-1,-2.4801451E-1,-6.5984976E-1,4.741365E-1,6.1518747E-1,-2.2973494E-1,-5.1366395E-1,6.676665E-1,5.2834053E-2,-7.729445E-1,-2.9358367E-2,8.185381E-2,7.823891E-1,-1.2946366E-1,2.8375292E-1,-7.867689E-2,2.8177026E-1,-7.013501E-1,8.539539E-4,8.798037E-2,-8.8322914E-1,4.897913E-2,9.2722553E-1,1.9864842E-2,-6.4154965E-1,5.936121E-2,7.64476E-2,-3.9563682E-2,7.012728E-2,-3.444553E-2,-8.634164E-1,1.7190618E-2,-9.7349636E-2,2.4153566E-2,1.0129968E-1,1.0726838E-2,-6.638556E-2,6.491531E-2,-7.556246E-2,-1.37848575E-2,-9.510758E-2,-8.63832E-3],"categories":[],"categories_nodes":[],"categories_segments":[],"categories_sizes":[],"default_left":[1,1,0,1,1,0,1,1,1,1,0,0,1,0,0,1,1,0,0,1,0,0,0,1,0,1,1,1,0,0,0,0,0,1,0,0,0,0,0,0,0,0,0,0,0],"id":31,"left_children":[1,3,5,7,9,11,13,15,17,19,21,-1,23,-1,-1,25,27,29,-1,31,33,-1,-1,35,-1,37,39,41,-1,-1,-1,-1,-1,43,-1,-1,-1,-1,-1,-1,-1,-1,-1,-1,-1],"loss_changes":[7.5687413E0,5.3399158E0,4.0912395E0,4.939791E0,4.497661E0,2.891756E0,1.32198E0,3.878581E0,2.9076245E0,2.2584941E0,5.903301E-1,0E0,2.8390732E0,0E0,0E0,2.7334518E0,2.7583582E0,2.1373782E0,0E0,1.1212862E0,1.7696805E0,0E0,0E0,1.8848982E0,0E0,1.362463E0,2.5819073E0,1.3943732E-1,0E0,0E0,0E0,0E0,0E0,5.872979E-1,0E0,0E0,0E0,0E0,0E0,0E0,0E0,0E0,0E0,0E0,0E0],"parents":[2147483647,0,0,1,1,2,2,3,3,4,4,5,5,6,6,7,7,8,8,9,9,10,10,12,12,15,15,16,16,17,17,19,19,20,20,23,23,25,25,26,26,27,27,33,33],"right_children":[2,4,6,8,10,12,14,16,18,20,22,-1,24,-1,-1,26,28,30,-1,32,34,-1,-1,36,-1,38,40,42,-1,-1,-1,-1,-1,44,-1,-1,-1,-1,-1,-1,-1,-1,-1,-1,-1],"split_conditions":[6.8896194E-3,9.271415E-3,6.2174063E-2,8.304739E-3,8.796955E-3,7.853099E-3,9.216893E-3,8.744164E-3,9.583333E-3,5.792621E-3,1.3119589E-2,5.2834053E-2,2.7451143E-2,-2.9358367E-2,8.185381E-2,7.4141636E-3,9.149266E-3,2.3037225E-2,-7.867689E-2,9.400529E-3,4.3398555E-2,8.539539E-4,8.798037E-2,3.2955315E-2,4.897913E-2,3.5992183E-2,9.342297E-3,6.9427933E-3,5.936121E-2,7.64476E-2,-3.9563682E-2,7.012728E-2,-3.444553E-2,2.0094074E-2,1.7190618E-2,-9.7349636E-2,2.4153566E-2,1.0129968E-1,1.0726838E-2,-6.638556E-2,6.491531E-2,-7.556246E-2,-1.37848575E-2,-9.510758E-2,-8.63832E-3],"split_indices":[4604,2540,4387,4283,944,4400,4174,4560,4264,4635,723,0,4950,0,0,666,4153,1483,0,1542,4640,0,0,4786,0,1169,972,1861,0,0,0,0,0,4358,0,0,0,0,0,0,0,0,0,0,0],"split_type":[0,0,0,0,0,0,0,0,0,0,0,0,0,0,0,0,0,0,0,0,0,0,0,0,0,0,0,0,0,0,0,0,0,0,0,0,0,0,0,0,0,0,0,0,0],"sum_hessian":[7.437442E1,5.380291E1,2.0571512E1,3.7722942E1,1.6079967E1,1.7480536E1,3.0909765E0,2.9338001E1,8.384942E0,1.2804324E1,3.2756433E0,1.2001295E0,1.6280407E1,1.0029073E0,2.088069E0,2.391706E1,5.4209414E0,4.618288E0,3.766654E0,2.3487563E0,1.0455568E1,1.0508437E0,2.2247996E0,1.5249124E1,1.0312828E0,1.991781E1,3.9992497E0,3.2394764E0,2.181465E0,2.6312366E0,1.9870515E0,1.3347676E0,1.0139887E0,8.828389E0,1.6271789E0,1.4240733E1,1.0083908E0,1.7818487E1,2.0993228E0,1.8904011E0,2.1088486E0,2.2335024E0,1.0059739E0,7.732122E0,1.0962672E0],"tree_param":{"num_deleted":"0","num_feature":"5020","num_nodes":"45","size_leaf_vector":"1"}},{"base_weights":[3.81383E-2,3.5595337E-1,-2.3042685E-1,5.111832E-1,-6.005139E-1,-5.3975934E-1,2.739394E-1,6.312905E-1,-5.8962595E-2,-8.115945E-2,1.1305655E-2,5.6190938E-2,-7.49582E-1,-2.1545784E-1,7.043569E-1,3.0118445E-2,8.8532215E-1,6.163736E-1,-6.160593E-2,-8.6502993E-1,2.78545E-2,4.7727492E-1,-6.473684E-1,8.771437E-2,-2.6807932E-2,6.4328015E-1,-6.435849E-1,9.629772E-1,-2.0252258E-2,-1.0135351E-2,8.561241E-2,-9.2641485E-1,-8.788475E-4,-5.578955E-3,7.084745E-2,-8.2454644E-2,3.0216759E-3,8.499334E-2,-8.867255E-3,-8.218922E-2,-5.3709517E-3,1.0162548E-1,5.634505E-3,-9.772457E-2,-1.1050498E-2],"categories":[],"categories_nodes":[],"categories_segments":[],"categories_sizes":[],"default_left":[1,1,1,1,1,0,0,0,0,0,0,0,0,0,1,0,1,1,0,1,0,0,0,0,0,0,0,1,0,0,0,1,0,0,0,0,0,0,0,0,0,0,0,0,0],"id":32,"left_children":[1,3,5,7,9,11,13,15,-1,-1,-1,17,19,21,23,25,27,29,-1,31,-1,33,35,-1,-1,37,39,41,-1,-1,-1,43,-1,-1,-1,-1,-1,-1,-1,-1,-1,-1,-1,-1,-1],"loss_changes":[5.999545E0,5.079774E0,6.1050653E0,4.100374E0,8.37101E-1,3.0437002E0,3.3491144E0,3.9297075E0,0E0,0E0,0E0,3.0839431E0,2.3564844E0,2.6632318E0,1.6314778E0,4.0205107E0,1.7304735E0,8.467996E-1,0E0,8.468838E-1,0E0,4.8289394E-1,6.577244E-1,0E0,0E0,8.423729E-1,4.459697E-1,7.705946E-1,0E0,0E0,0E0,5.211506E-1,0E0,0E0,0E0,0E0,0E0,0E0,0E0,0E0,0E0,0E0,0E0,0E0,0E0],"parents":[2147483647,0,0,1,1,2,2,3,3,4,4,5,5,6,6,7,7,11,11,12,12,13,13,14,14,15,15,16,16,17,17,19,19,21,21,22,22,25,25,26,26,27,27,31,31],"right_children":[2,4,6,